digraph Tree {
node [shape=box, style="filled, rounded", color="black", fontname="helvetica"] ;
edge [fontname="helvetica"] ;
0 [label=<Royal flush &le; 3.5<br/>entropy = 1.417<br/>samples = 922509<br/>value = [462332, 389787, 43945, 19471, 3580, 1845, 1314, 213<br/>15, 7]>, fillcolor="#fbeee4"] ;
1 [label=<Flush &le; 3.5<br/>entropy = 1.405<br/>samples = 213846<br/>value = [107341, 90486, 10257, 4517, 459, 449, 275, 59, 1, 2]>, fillcolor="#fbeee4"] ;
0 -> 1 [labeldistance=2.5, labelangle=45, headlabel="True"] ;
2 [label=<Three of a kind &le; 3.5<br/>entropy = 1.576<br/>samples = 46269<br/>value = [17930, 22576, 3486, 1908, 116, 66, 150, 36, 1, 0]>, fillcolor="#fafbdf"] ;
1 -> 2 ;
3 [label=<One pair &le; 3.5<br/>entropy = 1.701<br/>samples = 9192<br/>value = [1571, 5463, 1087, 916, 33, 2, 91, 29, 0, 0]>, fillcolor="#f0f29a"] ;
2 -> 3 ;
4 [label=<Four of a kind &le; 3.5<br/>entropy = 1.736<br/>samples = 1706<br/>value = [0, 815, 464, 345, 0, 0, 61, 21, 0, 0]>, fillcolor="#f7f8c7"] ;
3 -> 4 ;
5 [label=<Nothing in hand &le; 1.5<br/>entropy = 1.63<br/>samples = 306<br/>value = [0, 0, 162, 70, 0, 0, 61, 13, 0, 0]>, fillcolor="#ccf5b2"] ;
4 -> 5 ;
6 [label=<Straight &le; 2.5<br/>entropy = 1.803<br/>samples = 80<br/>value = [0, 0, 36, 22, 0, 0, 14, 8, 0, 0]>, fillcolor="#dff9cf"] ;
5 -> 6 ;
7 [label=<Two pairs &le; 3.5<br/>entropy = 1.486<br/>samples = 28<br/>value = [0, 0, 17, 6, 0, 0, 1, 4, 0, 0]>, fillcolor="#bdf29c"] ;
6 -> 7 ;
8 [label=<Flush &le; 2.5<br/>entropy = 1.324<br/>samples = 19<br/>value = [0, 0, 11, 6, 0, 0, 0, 2, 0, 0]>, fillcolor="#ccf5b3"] ;
7 -> 8 ;
9 [label=<Two pairs &le; 2.5<br/>entropy = 1.261<br/>samples = 17<br/>value = [0, 0, 11, 4, 0, 0, 0, 2, 0, 0]>, fillcolor="#b8f194"] ;
8 -> 9 ;
10 [label=<Straight flush &le; 3.5<br/>entropy = 0.845<br/>samples = 11<br/>value = [0, 0, 8, 3, 0, 0, 0, 0, 0, 0]>, fillcolor="#acef83"] ;
9 -> 10 ;
11 [label="(...)", fillcolor="#C0C0C0"] ;
10 -> 11 ;
12 [label="(...)", fillcolor="#C0C0C0"] ;
10 -> 12 ;
17 [label=<Flush &le; 1.5<br/>entropy = 1.459<br/>samples = 6<br/>value = [0, 0, 3, 1, 0, 0, 0, 2, 0, 0]>, fillcolor="#def8ce"] ;
9 -> 17 ;
18 [label="(...)", fillcolor="#C0C0C0"] ;
17 -> 18 ;
21 [label="(...)", fillcolor="#C0C0C0"] ;
17 -> 21 ;
22 [label=<entropy = 0.0<br/>samples = 2<br/>value = [0, 0, 0, 2, 0, 0, 0, 0, 0, 0]>, fillcolor="#39e55e"] ;
8 -> 22 ;
23 [label=<Full house &le; 1.5<br/>entropy = 1.224<br/>samples = 9<br/>value = [0, 0, 6, 0, 0, 0, 1, 2, 0, 0]>, fillcolor="#b4f08e"] ;
7 -> 23 ;
24 [label=<Straight &le; 1.5<br/>entropy = 1.0<br/>samples = 2<br/>value = [0, 0, 1, 0, 0, 0, 1, 0, 0, 0]>, fillcolor="#ffffff"] ;
23 -> 24 ;
25 [label=<entropy = 0.0<br/>samples = 1<br/>value = [0, 0, 1, 0, 0, 0, 0, 0, 0, 0]>, fillcolor="#7be539"] ;
24 -> 25 ;
26 [label=<entropy = 0.0<br/>samples = 1<br/>value = [0, 0, 0, 0, 0, 0, 1, 0, 0, 0]>, fillcolor="#3c39e5"] ;
24 -> 26 ;
27 [label=<Royal flush &le; 2.5<br/>entropy = 0.863<br/>samples = 7<br/>value = [0, 0, 5, 0, 0, 0, 0, 2, 0, 0]>, fillcolor="#b0ef88"] ;
23 -> 27 ;
28 [label=<Three of a kind &le; 2.5<br/>entropy = 0.65<br/>samples = 6<br/>value = [0, 0, 5, 0, 0, 0, 0, 1, 0, 0]>, fillcolor="#95ea61"] ;
27 -> 28 ;
29 [label="(...)", fillcolor="#C0C0C0"] ;
28 -> 29 ;
30 [label="(...)", fillcolor="#C0C0C0"] ;
28 -> 30 ;
33 [label=<entropy = 0.0<br/>samples = 1<br/>value = [0, 0, 0, 0, 0, 0, 0, 1, 0, 0]>, fillcolor="#a339e5"] ;
27 -> 33 ;
34 [label=<Straight flush &le; 3.5<br/>entropy = 1.839<br/>samples = 52<br/>value = [0, 0, 19, 16, 0, 0, 13, 4, 0, 0]>, fillcolor="#f4fdef"] ;
6 -> 34 ;
35 [label=<Full house &le; 3.5<br/>entropy = 1.828<br/>samples = 37<br/>value = [0, 0, 9, 15, 0, 0, 10, 3, 0, 0]>, fillcolor="#dafae1"] ;
34 -> 35 ;
36 [label=<One pair &le; 2.5<br/>entropy = 1.745<br/>samples = 28<br/>value = [0, 0, 9, 10, 0, 0, 8, 1, 0, 0]>, fillcolor="#f5fef7"] ;
35 -> 36 ;
37 [label=<Royal flush &le; 2.5<br/>entropy = 1.772<br/>samples = 21<br/>value = [0, 0, 6, 6, 0, 0, 8, 1, 0, 0]>, fillcolor="#e5e5fc"] ;
36 -> 37 ;
38 [label="(...)", fillcolor="#C0C0C0"] ;
37 -> 38 ;
51 [label="(...)", fillcolor="#C0C0C0"] ;
37 -> 51 ;
60 [label=<Four of a kind &le; 1.5<br/>entropy = 0.985<br/>samples = 7<br/>value = [0, 0, 3, 4, 0, 0, 0, 0, 0, 0]>, fillcolor="#cef8d7"] ;
36 -> 60 ;
61 [label="(...)", fillcolor="#C0C0C0"] ;
60 -> 61 ;
62 [label="(...)", fillcolor="#C0C0C0"] ;
60 -> 62 ;
69 [label=<Three of a kind &le; 2.5<br/>entropy = 1.436<br/>samples = 9<br/>value = [0, 0, 0, 5, 0, 0, 2, 2, 0, 0]>, fillcolor="#aaf4ba"] ;
35 -> 69 ;
70 [label=<Three of a kind &le; 1.5<br/>entropy = 1.585<br/>samples = 6<br/>value = [0, 0, 0, 2, 0, 0, 2, 2, 0, 0]>, fillcolor="#ffffff"] ;
69 -> 70 ;
71 [label="(...)", fillcolor="#C0C0C0"] ;
70 -> 71 ;
74 [label="(...)", fillcolor="#C0C0C0"] ;
70 -> 74 ;
79 [label=<entropy = 0.0<br/>samples = 3<br/>value = [0, 0, 0, 3, 0, 0, 0, 0, 0, 0]>, fillcolor="#39e55e"] ;
69 -> 79 ;
80 [label=<One pair &le; 2.5<br/>entropy = 1.375<br/>samples = 15<br/>value = [0, 0, 10, 1, 0, 0, 3, 1, 0, 0]>, fillcolor="#b2f08c"] ;
34 -> 80 ;
81 [label=<Full house &le; 3.5<br/>entropy = 0.922<br/>samples = 10<br/>value = [0, 0, 8, 1, 0, 0, 0, 1, 0, 0]>, fillcolor="#98eb65"] ;
80 -> 81 ;
82 [label=<entropy = 0.0<br/>samples = 7<br/>value = [0, 0, 7, 0, 0, 0, 0, 0, 0, 0]>, fillcolor="#7be539"] ;
81 -> 82 ;
83 [label=<Two pairs &le; 1.5<br/>entropy = 1.585<br/>samples = 3<br/>value = [0, 0, 1, 1, 0, 0, 0, 1, 0, 0]>, fillcolor="#ffffff"] ;
81 -> 83 ;
84 [label="(...)", fillcolor="#C0C0C0"] ;
83 -> 84 ;
87 [label="(...)", fillcolor="#C0C0C0"] ;
83 -> 87 ;
88 [label=<Three of a kind &le; 1.5<br/>entropy = 0.971<br/>samples = 5<br/>value = [0, 0, 2, 0, 0, 0, 3, 0, 0, 0]>, fillcolor="#bebdf6"] ;
80 -> 88 ;
89 [label=<Four of a kind &le; 1.5<br/>entropy = 0.918<br/>samples = 3<br/>value = [0, 0, 2, 0, 0, 0, 1, 0, 0, 0]>, fillcolor="#bdf29c"] ;
88 -> 89 ;
90 [label="(...)", fillcolor="#C0C0C0"] ;
89 -> 90 ;
91 [label="(...)", fillcolor="#C0C0C0"] ;
89 -> 91 ;
92 [label=<entropy = 0.0<br/>samples = 2<br/>value = [0, 0, 0, 0, 0, 0, 2, 0, 0, 0]>, fillcolor="#3c39e5"] ;
88 -> 92 ;
93 [label=<Straight flush &le; 2.5<br/>entropy = 1.537<br/>samples = 226<br/>value = [0, 0, 126, 48, 0, 0, 47, 5, 0, 0]>, fillcolor="#c5f4a8"] ;
5 -> 93 ;
94 [label=<Three of a kind &le; 2.5<br/>entropy = 1.669<br/>samples = 114<br/>value = [0, 0, 57, 24, 0, 0, 28, 5, 0, 0]>, fillcolor="#d2f6bc"] ;
93 -> 94 ;
95 [label=<Straight flush &le; 1.5<br/>entropy = 1.549<br/>samples = 84<br/>value = [0, 0, 48, 14, 0, 0, 19, 3, 0, 0]>, fillcolor="#c4f3a7"] ;
94 -> 95 ;
96 [label=<Full house &le; 2.5<br/>entropy = 1.634<br/>samples = 43<br/>value = [0, 0, 21, 6, 0, 0, 14, 2, 0, 0]>, fillcolor="#dff9cf"] ;
95 -> 96 ;
97 [label=<Three of a kind &le; 1.5<br/>entropy = 1.59<br/>samples = 26<br/>value = [0, 0, 15, 3, 0, 0, 6, 2, 0, 0]>, fillcolor="#c4f3a6"] ;
96 -> 97 ;
98 [label="(...)", fillcolor="#C0C0C0"] ;
97 -> 98 ;
107 [label="(...)", fillcolor="#C0C0C0"] ;
97 -> 107 ;
122 [label=<Nothing in hand &le; 2.5<br/>entropy = 1.484<br/>samples = 17<br/>value = [0, 0, 6, 3, 0, 0, 8, 0, 0, 0]>, fillcolor="#dcdbfa"] ;
96 -> 122 ;
123 [label="(...)", fillcolor="#C0C0C0"] ;
122 -> 123 ;
128 [label="(...)", fillcolor="#C0C0C0"] ;
122 -> 128 ;
139 [label=<One pair &le; 2.5<br/>entropy = 1.358<br/>samples = 41<br/>value = [0, 0, 27, 8, 0, 0, 5, 1, 0, 0]>, fillcolor="#b3f08d"] ;
95 -> 139 ;
140 [label=<Four of a kind &le; 2.5<br/>entropy = 1.35<br/>samples = 30<br/>value = [0, 0, 19, 8, 0, 0, 2, 1, 0, 0]>, fillcolor="#bdf29c"] ;
139 -> 140 ;
141 [label="(...)", fillcolor="#C0C0C0"] ;
140 -> 141 ;
156 [label="(...)", fillcolor="#C0C0C0"] ;
140 -> 156 ;
165 [label=<Three of a kind &le; 1.5<br/>entropy = 0.845<br/>samples = 11<br/>value = [0, 0, 8, 0, 0, 0, 3, 0, 0, 0]>, fillcolor="#acef83"] ;
139 -> 165 ;
166 [label="(...)", fillcolor="#C0C0C0"] ;
165 -> 166 ;
167 [label="(...)", fillcolor="#C0C0C0"] ;
165 -> 167 ;
172 [label=<One pair &le; 1.5<br/>entropy = 1.831<br/>samples = 30<br/>value = [0, 0, 9, 10, 0, 0, 9, 2, 0, 0]>, fillcolor="#f6fef7"] ;
94 -> 172 ;
173 [label=<Two pairs &le; 2.5<br/>entropy = 1.551<br/>samples = 12<br/>value = [0, 0, 1, 7, 0, 0, 3, 1, 0, 0]>, fillcolor="#a7f3b7"] ;
172 -> 173 ;
174 [label=<Four of a kind &le; 2.0<br/>entropy = 0.811<br/>samples = 4<br/>value = [0, 0, 0, 1, 0, 0, 3, 0, 0, 0]>, fillcolor="#7d7bee"] ;
173 -> 174 ;
175 [label="(...)", fillcolor="#C0C0C0"] ;
174 -> 175 ;
176 [label="(...)", fillcolor="#C0C0C0"] ;
174 -> 176 ;
177 [label=<Straight &le; 3.5<br/>entropy = 1.061<br/>samples = 8<br/>value = [0, 0, 1, 6, 0, 0, 0, 1, 0, 0]>, fillcolor="#72ec8c"] ;
173 -> 177 ;
178 [label="(...)", fillcolor="#C0C0C0"] ;
177 -> 178 ;
183 [label="(...)", fillcolor="#C0C0C0"] ;
177 -> 183 ;
186 [label=<Royal flush &le; 1.5<br/>entropy = 1.711<br/>samples = 18<br/>value = [0, 0, 8, 3, 0, 0, 6, 1, 0, 0]>, fillcolor="#e9fbde"] ;
172 -> 186 ;
187 [label=<Two pairs &le; 3.5<br/>entropy = 0.918<br/>samples = 6<br/>value = [0, 0, 4, 2, 0, 0, 0, 0, 0, 0]>, fillcolor="#bdf29c"] ;
186 -> 187 ;
188 [label="(...)", fillcolor="#C0C0C0"] ;
187 -> 188 ;
189 [label="(...)", fillcolor="#C0C0C0"] ;
187 -> 189 ;
190 [label=<Flush &le; 1.5<br/>entropy = 1.626<br/>samples = 12<br/>value = [0, 0, 4, 1, 0, 0, 6, 1, 0, 0]>, fillcolor="#cecef8"] ;
186 -> 190 ;
191 [label="(...)", fillcolor="#C0C0C0"] ;
190 -> 191 ;
196 [label="(...)", fillcolor="#C0C0C0"] ;
190 -> 196 ;
201 [label=<Royal flush &le; 2.5<br/>entropy = 1.341<br/>samples = 112<br/>value = [0, 0, 69, 24, 0, 0, 19, 0, 0, 0]>, fillcolor="#bcf29a"] ;
93 -> 201 ;
202 [label=<Full house &le; 3.5<br/>entropy = 1.476<br/>samples = 79<br/>value = [0, 0, 41, 21, 0, 0, 17, 0, 0, 0]>, fillcolor="#d1f6bb"] ;
201 -> 202 ;
203 [label=<Straight &le; 2.5<br/>entropy = 1.5<br/>samples = 66<br/>value = [0, 0, 33, 16, 0, 0, 17, 0, 0, 0]>, fillcolor="#d4f7be"] ;
202 -> 203 ;
204 [label=<Three of a kind &le; 2.5<br/>entropy = 1.49<br/>samples = 38<br/>value = [0, 0, 18, 13, 0, 0, 7, 0, 0, 0]>, fillcolor="#e5fad7"] ;
203 -> 204 ;
205 [label="(...)", fillcolor="#C0C0C0"] ;
204 -> 205 ;
226 [label="(...)", fillcolor="#C0C0C0"] ;
204 -> 226 ;
241 [label=<Two pairs &le; 2.5<br/>entropy = 1.358<br/>samples = 28<br/>value = [0, 0, 15, 3, 0, 0, 10, 0, 0, 0]>, fillcolor="#daf8c8"] ;
203 -> 241 ;
242 [label="(...)", fillcolor="#C0C0C0"] ;
241 -> 242 ;
257 [label="(...)", fillcolor="#C0C0C0"] ;
241 -> 257 ;
262 [label=<Straight flush &le; 3.5<br/>entropy = 0.961<br/>samples = 13<br/>value = [0, 0, 8, 5, 0, 0, 0, 0, 0, 0]>, fillcolor="#cef5b5"] ;
202 -> 262 ;
263 [label=<Three of a kind &le; 1.5<br/>entropy = 1.0<br/>samples = 10<br/>value = [0, 0, 5, 5, 0, 0, 0, 0, 0, 0]>, fillcolor="#ffffff"] ;
262 -> 263 ;
264 [label="(...)", fillcolor="#C0C0C0"] ;
263 -> 264 ;
265 [label="(...)", fillcolor="#C0C0C0"] ;
263 -> 265 ;
272 [label=<entropy = 0.0<br/>samples = 3<br/>value = [0, 0, 3, 0, 0, 0, 0, 0, 0, 0]>, fillcolor="#7be539"] ;
262 -> 272 ;
273 [label=<Two pairs &le; 3.5<br/>entropy = 0.761<br/>samples = 33<br/>value = [0, 0, 28, 3, 0, 0, 2, 0, 0, 0]>, fillcolor="#91e95a"] ;
201 -> 273 ;
274 [label=<Straight &le; 3.5<br/>entropy = 0.276<br/>samples = 21<br/>value = [0, 0, 20, 0, 0, 0, 1, 0, 0, 0]>, fillcolor="#82e643"] ;
273 -> 274 ;
275 [label=<entropy = 0.0<br/>samples = 16<br/>value = [0, 0, 16, 0, 0, 0, 0, 0, 0, 0]>, fillcolor="#7be539"] ;
274 -> 275 ;
276 [label=<Two pairs &le; 2.0<br/>entropy = 0.722<br/>samples = 5<br/>value = [0, 0, 4, 0, 0, 0, 1, 0, 0, 0]>, fillcolor="#9cec6a"] ;
274 -> 276 ;
277 [label="(...)", fillcolor="#C0C0C0"] ;
276 -> 277 ;
280 [label="(...)", fillcolor="#C0C0C0"] ;
276 -> 280 ;
281 [label=<Full house &le; 1.5<br/>entropy = 1.189<br/>samples = 12<br/>value = [0, 0, 8, 3, 0, 0, 1, 0, 0, 0]>, fillcolor="#b6f191"] ;
273 -> 281 ;
282 [label=<Straight &le; 2.5<br/>entropy = 1.5<br/>samples = 4<br/>value = [0, 0, 1, 2, 0, 0, 1, 0, 0, 0]>, fillcolor="#bdf6c9"] ;
281 -> 282 ;
283 [label="(...)", fillcolor="#C0C0C0"] ;
282 -> 283 ;
286 [label="(...)", fillcolor="#C0C0C0"] ;
282 -> 286 ;
287 [label=<Straight &le; 2.5<br/>entropy = 0.544<br/>samples = 8<br/>value = [0, 0, 7, 1, 0, 0, 0, 0, 0, 0]>, fillcolor="#8ee955"] ;
281 -> 287 ;
288 [label="(...)", fillcolor="#C0C0C0"] ;
287 -> 288 ;
291 [label="(...)", fillcolor="#C0C0C0"] ;
287 -> 291 ;
292 [label=<Four of a kind &le; 12.5<br/>entropy = 1.436<br/>samples = 1400<br/>value = [0, 815, 302, 275, 0, 0, 0, 8, 0, 0]>, fillcolor="#f1f3a2"] ;
4 -> 292 ;
293 [label=<Full house &le; 1.5<br/>entropy = 1.414<br/>samples = 1260<br/>value = [0, 746, 277, 231, 0, 0, 0, 6, 0, 0]>, fillcolor="#f1f3a1"] ;
292 -> 293 ;
294 [label=<Two pairs &le; 3.5<br/>entropy = 1.312<br/>samples = 286<br/>value = [0, 181, 69, 35, 0, 0, 0, 1, 0, 0]>, fillcolor="#f0f299"] ;
293 -> 294 ;
295 [label=<One pair &le; 2.5<br/>entropy = 1.354<br/>samples = 209<br/>value = [0, 125, 59, 24, 0, 0, 0, 1, 0, 0]>, fillcolor="#f2f4a8"] ;
294 -> 295 ;
296 [label=<Four of a kind &le; 9.5<br/>entropy = 1.445<br/>samples = 147<br/>value = [0, 82, 42, 22, 0, 0, 0, 1, 0, 0]>, fillcolor="#f4f5b4"] ;
295 -> 296 ;
297 [label=<Royal flush &le; 2.5<br/>entropy = 1.479<br/>samples = 86<br/>value = [0, 41, 30, 15, 0, 0, 0, 0, 0, 0]>, fillcolor="#f9fad8"] ;
296 -> 297 ;
298 [label="(...)", fillcolor="#C0C0C0"] ;
297 -> 298 ;
337 [label="(...)", fillcolor="#C0C0C0"] ;
297 -> 337 ;
362 [label=<Straight flush &le; 3.5<br/>entropy = 1.302<br/>samples = 61<br/>value = [0, 41, 12, 7, 0, 0, 0, 1, 0, 0]>, fillcolor="#eef08a"] ;
296 -> 362 ;
363 [label="(...)", fillcolor="#C0C0C0"] ;
362 -> 363 ;
402 [label="(...)", fillcolor="#C0C0C0"] ;
362 -> 402 ;
423 [label=<Three of a kind &le; 2.5<br/>entropy = 1.038<br/>samples = 62<br/>value = [0, 43, 17, 2, 0, 0, 0, 0, 0, 0]>, fillcolor="#eef08d"] ;
295 -> 423 ;
424 [label=<Four of a kind &le; 4.5<br/>entropy = 0.894<br/>samples = 50<br/>value = [0, 38, 11, 1, 0, 0, 0, 0, 0, 0]>, fillcolor="#ebed76"] ;
423 -> 424 ;
425 [label="(...)", fillcolor="#C0C0C0"] ;
424 -> 425 ;
430 [label="(...)", fillcolor="#C0C0C0"] ;
424 -> 430 ;
449 [label=<Royal flush &le; 2.5<br/>entropy = 1.325<br/>samples = 12<br/>value = [0, 5, 6, 1, 0, 0, 0, 0, 0, 0]>, fillcolor="#ecfbe3"] ;
423 -> 449 ;
450 [label="(...)", fillcolor="#C0C0C0"] ;
449 -> 450 ;
457 [label="(...)", fillcolor="#C0C0C0"] ;
449 -> 457 ;
458 [label=<Four of a kind &le; 5.5<br/>entropy = 1.118<br/>samples = 77<br/>value = [0, 56, 10, 11, 0, 0, 0, 0, 0, 0]>, fillcolor="#ebed78"] ;
294 -> 458 ;
459 [label=<Nothing in hand &le; 1.5<br/>entropy = 0.837<br/>samples = 15<br/>value = [0, 11, 0, 4, 0, 0, 0, 0, 0, 0]>, fillcolor="#edee81"] ;
458 -> 459 ;
460 [label=<entropy = 0.0<br/>samples = 3<br/>value = [0, 0, 0, 3, 0, 0, 0, 0, 0, 0]>, fillcolor="#39e55e"] ;
459 -> 460 ;
461 [label=<Straight &le; 2.5<br/>entropy = 0.414<br/>samples = 12<br/>value = [0, 11, 0, 1, 0, 0, 0, 0, 0, 0]>, fillcolor="#e5e74b"] ;
459 -> 461 ;
462 [label="(...)", fillcolor="#C0C0C0"] ;
461 -> 462 ;
467 [label="(...)", fillcolor="#C0C0C0"] ;
461 -> 467 ;
468 [label=<Straight &le; 1.5<br/>entropy = 1.115<br/>samples = 62<br/>value = [0, 45, 10, 7, 0, 0, 0, 0, 0, 0]>, fillcolor="#ebee7a"] ;
458 -> 468 ;
469 [label=<Four of a kind &le; 6.5<br/>entropy = 1.135<br/>samples = 18<br/>value = [0, 12, 1, 5, 0, 0, 0, 0, 0, 0]>, fillcolor="#eff194"] ;
468 -> 469 ;
470 [label="(...)", fillcolor="#C0C0C0"] ;
469 -> 470 ;
475 [label="(...)", fillcolor="#C0C0C0"] ;
469 -> 475 ;
490 [label=<Flush &le; 1.5<br/>entropy = 0.982<br/>samples = 44<br/>value = [0, 33, 9, 2, 0, 0, 0, 0, 0, 0]>, fillcolor="#ebed77"] ;
468 -> 490 ;
491 [label="(...)", fillcolor="#C0C0C0"] ;
490 -> 491 ;
508 [label="(...)", fillcolor="#C0C0C0"] ;
490 -> 508 ;
525 [label=<Flush &le; 1.5<br/>entropy = 1.436<br/>samples = 974<br/>value = [0, 565, 208, 196, 0, 0, 0, 5, 0, 0]>, fillcolor="#f1f3a3"] ;
293 -> 525 ;
526 [label=<Three of a kind &le; 1.5<br/>entropy = 1.431<br/>samples = 319<br/>value = [0, 193, 60, 62, 0, 0, 0, 4, 0, 0]>, fillcolor="#f0f29a"] ;
525 -> 526 ;
527 [label=<One pair &le; 1.5<br/>entropy = 1.757<br/>samples = 93<br/>value = [0, 30, 24, 35, 0, 0, 0, 4, 0, 0]>, fillcolor="#effdf2"] ;
526 -> 527 ;
528 [label=<Royal flush &le; 1.5<br/>entropy = 0.684<br/>samples = 22<br/>value = [0, 0, 0, 18, 0, 0, 0, 4, 0, 0]>, fillcolor="#65eb82"] ;
527 -> 528 ;
529 [label="(...)", fillcolor="#C0C0C0"] ;
528 -> 529 ;
530 [label="(...)", fillcolor="#C0C0C0"] ;
528 -> 530 ;
531 [label=<Royal flush &le; 1.5<br/>entropy = 1.548<br/>samples = 71<br/>value = [0, 30, 24, 17, 0, 0, 0, 0, 0, 0]>, fillcolor="#fbfce6"] ;
527 -> 531 ;
532 [label="(...)", fillcolor="#C0C0C0"] ;
531 -> 532 ;
533 [label="(...)", fillcolor="#C0C0C0"] ;
531 -> 533 ;
564 [label=<Royal flush &le; 1.5<br/>entropy = 1.128<br/>samples = 226<br/>value = [0, 163, 36, 27, 0, 0, 0, 0, 0, 0]>, fillcolor="#ecee7b"] ;
526 -> 564 ;
565 [label=<One pair &le; 1.5<br/>entropy = 1.458<br/>samples = 68<br/>value = [0, 35, 21, 12, 0, 0, 0, 0, 0, 0]>, fillcolor="#f6f7c4"] ;
564 -> 565 ;
566 [label="(...)", fillcolor="#C0C0C0"] ;
565 -> 566 ;
567 [label="(...)", fillcolor="#C0C0C0"] ;
565 -> 567 ;
598 [label=<One pair &le; 1.5<br/>entropy = 0.891<br/>samples = 158<br/>value = [0, 128, 15, 15, 0, 0, 0, 0, 0, 0]>, fillcolor="#e8ea63"] ;
564 -> 598 ;
599 [label="(...)", fillcolor="#C0C0C0"] ;
598 -> 599 ;
622 [label="(...)", fillcolor="#C0C0C0"] ;
598 -> 622 ;
659 [label=<Royal flush &le; 1.5<br/>entropy = 1.431<br/>samples = 655<br/>value = [0, 372, 148, 134, 0, 0, 0, 1, 0, 0]>, fillcolor="#f2f4a8"] ;
525 -> 659 ;
660 [label=<Three of a kind &le; 1.5<br/>entropy = 1.243<br/>samples = 245<br/>value = [0, 162, 53, 30, 0, 0, 0, 0, 0, 0]>, fillcolor="#eff08f"] ;
659 -> 660 ;
661 [label=<One pair &le; 1.5<br/>entropy = 1.526<br/>samples = 71<br/>value = [0, 31, 25, 15, 0, 0, 0, 0, 0, 0]>, fillcolor="#fbfce5"] ;
660 -> 661 ;
662 [label="(...)", fillcolor="#C0C0C0"] ;
661 -> 662 ;
663 [label="(...)", fillcolor="#C0C0C0"] ;
661 -> 663 ;
696 [label=<One pair &le; 1.5<br/>entropy = 1.037<br/>samples = 174<br/>value = [0, 131, 28, 15, 0, 0, 0, 0, 0, 0]>, fillcolor="#ebed73"] ;
660 -> 696 ;
697 [label="(...)", fillcolor="#C0C0C0"] ;
696 -> 697 ;
746 [label="(...)", fillcolor="#C0C0C0"] ;
696 -> 746 ;
799 [label=<One pair &le; 1.5<br/>entropy = 1.506<br/>samples = 410<br/>value = [0, 210, 95, 104, 0, 0, 0, 1, 0, 0]>, fillcolor="#f5f6ba"] ;
659 -> 799 ;
800 [label=<Three of a kind &le; 1.5<br/>entropy = 1.046<br/>samples = 172<br/>value = [0, 130, 21, 21, 0, 0, 0, 0, 0, 0]>, fillcolor="#eaec70"] ;
799 -> 800 ;
801 [label="(...)", fillcolor="#C0C0C0"] ;
800 -> 801 ;
830 [label="(...)", fillcolor="#C0C0C0"] ;
800 -> 830 ;
889 [label=<Three of a kind &le; 1.5<br/>entropy = 1.616<br/>samples = 238<br/>value = [0, 80, 74, 83, 0, 0, 0, 1, 0, 0]>, fillcolor="#fbfffc"] ;
799 -> 889 ;
890 [label="(...)", fillcolor="#C0C0C0"] ;
889 -> 890 ;
901 [label="(...)", fillcolor="#C0C0C0"] ;
889 -> 901 ;
1010 [label=<One pair &le; 1.5<br/>entropy = 1.559<br/>samples = 140<br/>value = [0, 69, 25, 44, 0, 0, 0, 2, 0, 0]>, fillcolor="#f7f8cb"] ;
292 -> 1010 ;
1011 [label=<Straight flush &le; 1.5<br/>entropy = 1.307<br/>samples = 44<br/>value = [0, 15, 4, 25, 0, 0, 0, 0, 0, 0]>, fillcolor="#bbf6c7"] ;
1010 -> 1011 ;
1012 [label=<Three of a kind &le; 1.5<br/>entropy = 1.352<br/>samples = 9<br/>value = [0, 1, 3, 5, 0, 0, 0, 0, 0, 0]>, fillcolor="#bdf6c9"] ;
1011 -> 1012 ;
1013 [label=<entropy = 0.0<br/>samples = 3<br/>value = [0, 0, 0, 3, 0, 0, 0, 0, 0, 0]>, fillcolor="#39e55e"] ;
1012 -> 1013 ;
1014 [label=<Straight &le; 1.5<br/>entropy = 1.459<br/>samples = 6<br/>value = [0, 1, 3, 2, 0, 0, 0, 0, 0, 0]>, fillcolor="#def8ce"] ;
1012 -> 1014 ;
1015 [label=<entropy = 0.0<br/>samples = 1<br/>value = [0, 1, 0, 0, 0, 0, 0, 0, 0, 0]>, fillcolor="#e2e539"] ;
1014 -> 1015 ;
1016 [label=<Royal flush &le; 2.0<br/>entropy = 0.971<br/>samples = 5<br/>value = [0, 0, 3, 2, 0, 0, 0, 0, 0, 0]>, fillcolor="#d3f6bd"] ;
1014 -> 1016 ;
1017 [label="(...)", fillcolor="#C0C0C0"] ;
1016 -> 1017 ;
1020 [label="(...)", fillcolor="#C0C0C0"] ;
1016 -> 1020 ;
1021 [label=<Three of a kind &le; 1.5<br/>entropy = 1.137<br/>samples = 35<br/>value = [0, 14, 1, 20, 0, 0, 0, 0, 0, 0]>, fillcolor="#c6f8d1"] ;
1011 -> 1021 ;
1022 [label=<Full house &le; 2.5<br/>entropy = 0.986<br/>samples = 9<br/>value = [0, 1, 1, 7, 0, 0, 0, 0, 0, 0]>, fillcolor="#6aec86"] ;
1021 -> 1022 ;
1023 [label=<Nothing in hand &le; 2.5<br/>entropy = 0.592<br/>samples = 7<br/>value = [0, 1, 0, 6, 0, 0, 0, 0, 0, 0]>, fillcolor="#5ae979"] ;
1022 -> 1023 ;
1024 [label="(...)", fillcolor="#C0C0C0"] ;
1023 -> 1024 ;
1025 [label="(...)", fillcolor="#C0C0C0"] ;
1023 -> 1025 ;
1030 [label=<Nothing in hand &le; 3.5<br/>entropy = 1.0<br/>samples = 2<br/>value = [0, 0, 1, 1, 0, 0, 0, 0, 0, 0]>, fillcolor="#ffffff"] ;
1022 -> 1030 ;
1031 [label="(...)", fillcolor="#C0C0C0"] ;
1030 -> 1031 ;
1032 [label="(...)", fillcolor="#C0C0C0"] ;
1030 -> 1032 ;
1033 [label=<Two pairs &le; 3.5<br/>entropy = 1.0<br/>samples = 26<br/>value = [0, 13, 0, 13, 0, 0, 0, 0, 0, 0]>, fillcolor="#ffffff"] ;
1021 -> 1033 ;
1034 [label=<Straight &le; 1.5<br/>entropy = 0.971<br/>samples = 20<br/>value = [0, 12, 0, 8, 0, 0, 0, 0, 0, 0]>, fillcolor="#f5f6bd"] ;
1033 -> 1034 ;
1035 [label="(...)", fillcolor="#C0C0C0"] ;
1034 -> 1035 ;
1040 [label="(...)", fillcolor="#C0C0C0"] ;
1034 -> 1040 ;
1053 [label=<Straight flush &le; 3.5<br/>entropy = 0.65<br/>samples = 6<br/>value = [0, 1, 0, 5, 0, 0, 0, 0, 0, 0]>, fillcolor="#61ea7e"] ;
1033 -> 1053 ;
1054 [label="(...)", fillcolor="#C0C0C0"] ;
1053 -> 1054 ;
1055 [label="(...)", fillcolor="#C0C0C0"] ;
1053 -> 1055 ;
1056 [label=<Three of a kind &le; 1.5<br/>entropy = 1.525<br/>samples = 96<br/>value = [0, 54, 21, 19, 0, 0, 0, 2, 0, 0]>, fillcolor="#f2f4a8"] ;
1010 -> 1056 ;
1057 [label=<Two pairs &le; 3.5<br/>entropy = 1.325<br/>samples = 34<br/>value = [0, 18, 13, 3, 0, 0, 0, 0, 0, 0]>, fillcolor="#f8f9d0"] ;
1056 -> 1057 ;
1058 [label=<Flush &le; 1.5<br/>entropy = 0.975<br/>samples = 27<br/>value = [0, 16, 11, 0, 0, 0, 0, 0, 0, 0]>, fillcolor="#f6f7c1"] ;
1057 -> 1058 ;
1059 [label=<Full house &le; 2.5<br/>entropy = 0.946<br/>samples = 11<br/>value = [0, 4, 7, 0, 0, 0, 0, 0, 0, 0]>, fillcolor="#c6f4aa"] ;
1058 -> 1059 ;
1060 [label="(...)", fillcolor="#C0C0C0"] ;
1059 -> 1060 ;
1065 [label="(...)", fillcolor="#C0C0C0"] ;
1059 -> 1065 ;
1070 [label=<Royal flush &le; 1.5<br/>entropy = 0.811<br/>samples = 16<br/>value = [0, 12, 4, 0, 0, 0, 0, 0, 0, 0]>, fillcolor="#ecee7b"] ;
1058 -> 1070 ;
1071 [label="(...)", fillcolor="#C0C0C0"] ;
1070 -> 1071 ;
1076 [label="(...)", fillcolor="#C0C0C0"] ;
1070 -> 1076 ;
1077 [label=<Flush &le; 2.5<br/>entropy = 1.557<br/>samples = 7<br/>value = [0, 2, 2, 3, 0, 0, 0, 0, 0, 0]>, fillcolor="#d7fadf"] ;
1057 -> 1077 ;
1078 [label=<Flush &le; 1.5<br/>entropy = 0.918<br/>samples = 3<br/>value = [0, 2, 0, 1, 0, 0, 0, 0, 0, 0]>, fillcolor="#f0f29c"] ;
1077 -> 1078 ;
1079 [label="(...)", fillcolor="#C0C0C0"] ;
1078 -> 1079 ;
1080 [label="(...)", fillcolor="#C0C0C0"] ;
1078 -> 1080 ;
1081 [label=<Royal flush &le; 2.0<br/>entropy = 1.0<br/>samples = 4<br/>value = [0, 0, 2, 2, 0, 0, 0, 0, 0, 0]>, fillcolor="#ffffff"] ;
1077 -> 1081 ;
1082 [label="(...)", fillcolor="#C0C0C0"] ;
1081 -> 1082 ;
1083 [label="(...)", fillcolor="#C0C0C0"] ;
1081 -> 1083 ;
1084 [label=<Royal flush &le; 1.5<br/>entropy = 1.501<br/>samples = 62<br/>value = [0, 36, 8, 16, 0, 0, 0, 2, 0, 0]>, fillcolor="#f2f4a9"] ;
1056 -> 1084 ;
1085 [label=<Flush &le; 1.5<br/>entropy = 0.942<br/>samples = 29<br/>value = [0, 23, 3, 3, 0, 0, 0, 0, 0, 0]>, fillcolor="#e9eb67"] ;
1084 -> 1085 ;
1086 [label=<Nothing in hand &le; 2.5<br/>entropy = 0.954<br/>samples = 8<br/>value = [0, 5, 3, 0, 0, 0, 0, 0, 0, 0]>, fillcolor="#f3f5b0"] ;
1085 -> 1086 ;
1087 [label="(...)", fillcolor="#C0C0C0"] ;
1086 -> 1087 ;
1092 [label="(...)", fillcolor="#C0C0C0"] ;
1086 -> 1092 ;
1093 [label=<Nothing in hand &le; 2.5<br/>entropy = 0.592<br/>samples = 21<br/>value = [0, 18, 0, 3, 0, 0, 0, 0, 0, 0]>, fillcolor="#e7e95a"] ;
1085 -> 1093 ;
1094 [label="(...)", fillcolor="#C0C0C0"] ;
1093 -> 1094 ;
1103 [label="(...)", fillcolor="#C0C0C0"] ;
1093 -> 1103 ;
1104 [label=<Flush &le; 1.5<br/>entropy = 1.716<br/>samples = 33<br/>value = [0, 13, 5, 13, 0, 0, 0, 2, 0, 0]>, fillcolor="#ffffff"] ;
1084 -> 1104 ;
1105 [label=<Nothing in hand &le; 1.5<br/>entropy = 0.567<br/>samples = 15<br/>value = [0, 13, 0, 2, 0, 0, 0, 0, 0, 0]>, fillcolor="#e6e957"] ;
1104 -> 1105 ;
1106 [label="(...)", fillcolor="#C0C0C0"] ;
1105 -> 1106 ;
1109 [label="(...)", fillcolor="#C0C0C0"] ;
1105 -> 1109 ;
1110 [label=<Nothing in hand &le; 2.5<br/>entropy = 1.3<br/>samples = 18<br/>value = [0, 0, 5, 11, 0, 0, 0, 2, 0, 0]>, fillcolor="#a4f3b5"] ;
1104 -> 1110 ;
1111 [label="(...)", fillcolor="#C0C0C0"] ;
1110 -> 1111 ;
1116 [label="(...)", fillcolor="#C0C0C0"] ;
1110 -> 1116 ;
1127 [label=<Four of a kind &le; 3.5<br/>entropy = 1.561<br/>samples = 7486<br/>value = [1571, 4648, 623, 571, 33, 2, 30, 8, 0, 0]>, fillcolor="#f0f198"] ;
3 -> 1127 ;
1128 [label=<Three of a kind &le; 2.5<br/>entropy = 1.439<br/>samples = 1360<br/>value = [0, 789, 300, 263, 0, 0, 0, 8, 0, 0]>, fillcolor="#f2f3a4"] ;
1127 -> 1128 ;
1129 [label=<Royal flush &le; 2.5<br/>entropy = 1.455<br/>samples = 892<br/>value = [0, 511, 188, 187, 0, 0, 0, 6, 0, 0]>, fillcolor="#f2f3a4"] ;
1128 -> 1129 ;
1130 [label=<Flush &le; 2.5<br/>entropy = 1.56<br/>samples = 552<br/>value = [0, 278, 129, 139, 0, 0, 0, 6, 0, 0]>, fillcolor="#f5f6bc"] ;
1129 -> 1130 ;
1131 [label=<Four of a kind &le; 2.5<br/>entropy = 1.675<br/>samples = 343<br/>value = [0, 114, 96, 127, 0, 0, 0, 6, 0, 0]>, fillcolor="#f4fef6"] ;
1130 -> 1131 ;
1132 [label=<One pair &le; 12.5<br/>entropy = 1.161<br/>samples = 205<br/>value = [0, 0, 96, 103, 0, 0, 0, 6, 0, 0]>, fillcolor="#f2fdf5"] ;
1131 -> 1132 ;
1133 [label=<Straight flush &le; 2.5<br/>entropy = 1.126<br/>samples = 183<br/>value = [0, 0, 83, 96, 0, 0, 0, 4, 0, 0]>, fillcolor="#e5fcea"] ;
1132 -> 1133 ;
1134 [label="(...)", fillcolor="#C0C0C0"] ;
1133 -> 1134 ;
1211 [label="(...)", fillcolor="#C0C0C0"] ;
1133 -> 1211 ;
1278 [label=<Royal flush &le; 1.5<br/>entropy = 1.289<br/>samples = 22<br/>value = [0, 0, 13, 7, 0, 0, 0, 2, 0, 0]>, fillcolor="#caf5b0"] ;
1132 -> 1278 ;
1279 [label="(...)", fillcolor="#C0C0C0"] ;
1278 -> 1279 ;
1284 [label="(...)", fillcolor="#C0C0C0"] ;
1278 -> 1284 ;
1297 [label=<One pair &le; 5.5<br/>entropy = 0.667<br/>samples = 138<br/>value = [0, 114, 0, 24, 0, 0, 0, 0, 0, 0]>, fillcolor="#e8ea63"] ;
1131 -> 1297 ;
1298 [label=<Full house &le; 3.5<br/>entropy = 0.229<br/>samples = 27<br/>value = [0, 26, 0, 1, 0, 0, 0, 0, 0, 0]>, fillcolor="#e3e641"] ;
1297 -> 1298 ;
1299 [label="(...)", fillcolor="#C0C0C0"] ;
1298 -> 1299 ;
1300 [label="(...)", fillcolor="#C0C0C0"] ;
1298 -> 1300 ;
1303 [label=<Two pairs &le; 1.5<br/>entropy = 0.736<br/>samples = 111<br/>value = [0, 88, 0, 23, 0, 0, 0, 0, 0, 0]>, fillcolor="#eaec6d"] ;
1297 -> 1303 ;
1304 [label="(...)", fillcolor="#C0C0C0"] ;
1303 -> 1304 ;
1311 [label="(...)", fillcolor="#C0C0C0"] ;
1303 -> 1311 ;
1350 [label=<Four of a kind &le; 2.5<br/>entropy = 0.932<br/>samples = 209<br/>value = [0, 164, 33, 12, 0, 0, 0, 0, 0, 0]>, fillcolor="#e9ec6c"] ;
1130 -> 1350 ;
1351 [label=<Two pairs &le; 1.5<br/>entropy = 0.431<br/>samples = 136<br/>value = [0, 124, 0, 12, 0, 0, 0, 0, 0, 0]>, fillcolor="#e5e84c"] ;
1350 -> 1351 ;
1352 [label=<entropy = 0.0<br/>samples = 31<br/>value = [0, 31, 0, 0, 0, 0, 0, 0, 0, 0]>, fillcolor="#e2e539"] ;
1351 -> 1352 ;
1353 [label=<Two pairs &le; 3.5<br/>entropy = 0.513<br/>samples = 105<br/>value = [0, 93, 0, 12, 0, 0, 0, 0, 0, 0]>, fillcolor="#e6e853"] ;
1351 -> 1353 ;
1354 [label="(...)", fillcolor="#C0C0C0"] ;
1353 -> 1354 ;
1385 [label="(...)", fillcolor="#C0C0C0"] ;
1353 -> 1385 ;
1386 [label=<Two pairs &le; 2.5<br/>entropy = 0.993<br/>samples = 73<br/>value = [0, 40, 33, 0, 0, 0, 0, 0, 0, 0]>, fillcolor="#fafadc"] ;
1350 -> 1386 ;
1387 [label=<Straight flush &le; 2.5<br/>entropy = 0.982<br/>samples = 45<br/>value = [0, 19, 26, 0, 0, 0, 0, 0, 0, 0]>, fillcolor="#dbf8ca"] ;
1386 -> 1387 ;
1388 [label="(...)", fillcolor="#C0C0C0"] ;
1387 -> 1388 ;
1397 [label="(...)", fillcolor="#C0C0C0"] ;
1387 -> 1397 ;
1416 [label=<One pair &le; 6.5<br/>entropy = 0.811<br/>samples = 28<br/>value = [0, 21, 7, 0, 0, 0, 0, 0, 0, 0]>, fillcolor="#ecee7b"] ;
1386 -> 1416 ;
1417 [label="(...)", fillcolor="#C0C0C0"] ;
1416 -> 1417 ;
1424 [label="(...)", fillcolor="#C0C0C0"] ;
1416 -> 1424 ;
1435 [label=<Flush &le; 2.5<br/>entropy = 1.211<br/>samples = 340<br/>value = [0, 233, 59, 48, 0, 0, 0, 0, 0, 0]>, fillcolor="#edef84"] ;
1129 -> 1435 ;
1436 [label=<Four of a kind &le; 2.5<br/>entropy = 0.875<br/>samples = 237<br/>value = [0, 193, 25, 19, 0, 0, 0, 0, 0, 0]>, fillcolor="#e8ea62"] ;
1435 -> 1436 ;
1437 [label=<One pair &le; 11.5<br/>entropy = 0.513<br/>samples = 166<br/>value = [0, 147, 0, 19, 0, 0, 0, 0, 0, 0]>, fillcolor="#e6e853"] ;
1436 -> 1437 ;
1438 [label=<Two pairs &le; 2.5<br/>entropy = 0.373<br/>samples = 125<br/>value = [0, 116, 0, 9, 0, 0, 0, 0, 0, 0]>, fillcolor="#e4e748"] ;
1437 -> 1438 ;
1439 [label="(...)", fillcolor="#C0C0C0"] ;
1438 -> 1439 ;
1446 [label="(...)", fillcolor="#C0C0C0"] ;
1438 -> 1446 ;
1475 [label=<Two pairs &le; 3.5<br/>entropy = 0.801<br/>samples = 41<br/>value = [0, 31, 0, 10, 0, 0, 0, 0, 0, 0]>, fillcolor="#ebed79"] ;
1437 -> 1475 ;
1476 [label="(...)", fillcolor="#C0C0C0"] ;
1475 -> 1476 ;
1493 [label="(...)", fillcolor="#C0C0C0"] ;
1475 -> 1493 ;
1498 [label=<One pair &le; 12.5<br/>entropy = 0.936<br/>samples = 71<br/>value = [0, 46, 25, 0, 0, 0, 0, 0, 0, 0]>, fillcolor="#f2f3a5"] ;
1436 -> 1498 ;
1499 [label=<Nothing in hand &le; 3.5<br/>entropy = 0.953<br/>samples = 67<br/>value = [0, 42, 25, 0, 0, 0, 0, 0, 0, 0]>, fillcolor="#f3f4af"] ;
1498 -> 1499 ;
1500 [label="(...)", fillcolor="#C0C0C0"] ;
1499 -> 1500 ;
1507 [label="(...)", fillcolor="#C0C0C0"] ;
1499 -> 1507 ;
1520 [label=<entropy = 0.0<br/>samples = 4<br/>value = [0, 4, 0, 0, 0, 0, 0, 0, 0, 0]>, fillcolor="#e2e539"] ;
1498 -> 1520 ;
1521 [label=<Four of a kind &le; 2.5<br/>entropy = 1.573<br/>samples = 103<br/>value = [0, 40, 34, 29, 0, 0, 0, 0, 0, 0]>, fillcolor="#fcfdee"] ;
1435 -> 1521 ;
1522 [label=<Straight flush &le; 3.5<br/>entropy = 0.995<br/>samples = 74<br/>value = [0, 40, 34, 0, 0, 0, 0, 0, 0, 0]>, fillcolor="#fbfbe1"] ;
1521 -> 1522 ;
1523 [label=<Straight &le; 2.5<br/>entropy = 0.973<br/>samples = 57<br/>value = [0, 34, 23, 0, 0, 0, 0, 0, 0, 0]>, fillcolor="#f6f7bf"] ;
1522 -> 1523 ;
1524 [label="(...)", fillcolor="#C0C0C0"] ;
1523 -> 1524 ;
1531 [label="(...)", fillcolor="#C0C0C0"] ;
1523 -> 1531 ;
1538 [label=<One pair &le; 9.5<br/>entropy = 0.937<br/>samples = 17<br/>value = [0, 6, 11, 0, 0, 0, 0, 0, 0, 0]>, fillcolor="#c3f3a5"] ;
1522 -> 1538 ;
1539 [label="(...)", fillcolor="#C0C0C0"] ;
1538 -> 1539 ;
1548 [label="(...)", fillcolor="#C0C0C0"] ;
1538 -> 1548 ;
1549 [label=<entropy = 0.0<br/>samples = 29<br/>value = [0, 0, 0, 29, 0, 0, 0, 0, 0, 0]>, fillcolor="#39e55e"] ;
1521 -> 1549 ;
1550 [label=<Royal flush &le; 2.5<br/>entropy = 1.4<br/>samples = 468<br/>value = [0, 278, 112, 76, 0, 0, 0, 2, 0, 0]>, fillcolor="#f1f3a3"] ;
1128 -> 1550 ;
1551 [label=<Flush &le; 2.5<br/>entropy = 1.186<br/>samples = 341<br/>value = [0, 236, 65, 40, 0, 0, 0, 0, 0, 0]>, fillcolor="#edef84"] ;
1550 -> 1551 ;
1552 [label=<Four of a kind &le; 2.5<br/>entropy = 0.957<br/>samples = 245<br/>value = [0, 193, 28, 24, 0, 0, 0, 0, 0, 0]>, fillcolor="#e9eb68"] ;
1551 -> 1552 ;
1553 [label=<Nothing in hand &le; 1.5<br/>entropy = 0.581<br/>samples = 173<br/>value = [0, 149, 0, 24, 0, 0, 0, 0, 0, 0]>, fillcolor="#e7e959"] ;
1552 -> 1553 ;
1554 [label=<Straight flush &le; 1.5<br/>entropy = 0.831<br/>samples = 38<br/>value = [0, 28, 0, 10, 0, 0, 0, 0, 0, 0]>, fillcolor="#ecee80"] ;
1553 -> 1554 ;
1555 [label="(...)", fillcolor="#C0C0C0"] ;
1554 -> 1555 ;
1568 [label="(...)", fillcolor="#C0C0C0"] ;
1554 -> 1568 ;
1581 [label=<One pair &le; 12.5<br/>entropy = 0.481<br/>samples = 135<br/>value = [0, 121, 0, 14, 0, 0, 0, 0, 0, 0]>, fillcolor="#e5e850"] ;
1553 -> 1581 ;
1582 [label="(...)", fillcolor="#C0C0C0"] ;
1581 -> 1582 ;
1627 [label="(...)", fillcolor="#C0C0C0"] ;
1581 -> 1627 ;
1638 [label=<Nothing in hand &le; 3.5<br/>entropy = 0.964<br/>samples = 72<br/>value = [0, 44, 28, 0, 0, 0, 0, 0, 0, 0]>, fillcolor="#f4f6b7"] ;
1552 -> 1638 ;
1639 [label=<Royal flush &le; 1.5<br/>entropy = 0.918<br/>samples = 57<br/>value = [0, 38, 19, 0, 0, 0, 0, 0, 0, 0]>, fillcolor="#f0f29c"] ;
1638 -> 1639 ;
1640 [label="(...)", fillcolor="#C0C0C0"] ;
1639 -> 1640 ;
1643 [label="(...)", fillcolor="#C0C0C0"] ;
1639 -> 1643 ;
1646 [label=<Full house &le; 1.5<br/>entropy = 0.971<br/>samples = 15<br/>value = [0, 6, 9, 0, 0, 0, 0, 0, 0, 0]>, fillcolor="#d3f6bd"] ;
1638 -> 1646 ;
1647 [label="(...)", fillcolor="#C0C0C0"] ;
1646 -> 1647 ;
1648 [label="(...)", fillcolor="#C0C0C0"] ;
1646 -> 1648 ;
1657 [label=<Four of a kind &le; 2.5<br/>entropy = 1.48<br/>samples = 96<br/>value = [0, 43, 37, 16, 0, 0, 0, 0, 0, 0]>, fillcolor="#fcfceb"] ;
1551 -> 1657 ;
1658 [label=<Nothing in hand &le; 1.5<br/>entropy = 0.996<br/>samples = 80<br/>value = [0, 43, 37, 0, 0, 0, 0, 0, 0, 0]>, fillcolor="#fbfbe3"] ;
1657 -> 1658 ;
1659 [label=<Two pairs &le; 1.5<br/>entropy = 0.863<br/>samples = 21<br/>value = [0, 15, 6, 0, 0, 0, 0, 0, 0, 0]>, fillcolor="#eeef88"] ;
1658 -> 1659 ;
1660 [label="(...)", fillcolor="#C0C0C0"] ;
1659 -> 1660 ;
1663 [label="(...)", fillcolor="#C0C0C0"] ;
1659 -> 1663 ;
1674 [label=<Straight flush &le; 1.5<br/>entropy = 0.998<br/>samples = 59<br/>value = [0, 28, 31, 0, 0, 0, 0, 0, 0, 0]>, fillcolor="#f2fcec"] ;
1658 -> 1674 ;
1675 [label="(...)", fillcolor="#C0C0C0"] ;
1674 -> 1675 ;
1684 [label="(...)", fillcolor="#C0C0C0"] ;
1674 -> 1684 ;
1709 [label=<entropy = 0.0<br/>samples = 16<br/>value = [0, 0, 0, 16, 0, 0, 0, 0, 0, 0]>, fillcolor="#39e55e"] ;
1657 -> 1709 ;
1710 [label=<Flush &le; 2.5<br/>entropy = 1.669<br/>samples = 127<br/>value = [0, 42, 47, 36, 0, 0, 0, 2, 0, 0]>, fillcolor="#f7fdf3"] ;
1550 -> 1710 ;
1711 [label=<Four of a kind &le; 2.5<br/>entropy = 1.473<br/>samples = 106<br/>value = [0, 42, 47, 17, 0, 0, 0, 0, 0, 0]>, fillcolor="#f5fdf0"] ;
1710 -> 1711 ;
1712 [label=<Two pairs &le; 2.5<br/>entropy = 0.998<br/>samples = 89<br/>value = [0, 42, 47, 0, 0, 0, 0, 0, 0, 0]>, fillcolor="#f1fcea"] ;
1711 -> 1712 ;
1713 [label=<Full house &le; 3.5<br/>entropy = 0.918<br/>samples = 42<br/>value = [0, 14, 28, 0, 0, 0, 0, 0, 0, 0]>, fillcolor="#bdf29c"] ;
1712 -> 1713 ;
1714 [label="(...)", fillcolor="#C0C0C0"] ;
1713 -> 1714 ;
1731 [label="(...)", fillcolor="#C0C0C0"] ;
1713 -> 1731 ;
1738 [label=<One pair &le; 6.5<br/>entropy = 0.973<br/>samples = 47<br/>value = [0, 28, 19, 0, 0, 0, 0, 0, 0, 0]>, fillcolor="#f6f7bf"] ;
1712 -> 1738 ;
1739 [label="(...)", fillcolor="#C0C0C0"] ;
1738 -> 1739 ;
1744 [label="(...)", fillcolor="#C0C0C0"] ;
1738 -> 1744 ;
1771 [label=<entropy = 0.0<br/>samples = 17<br/>value = [0, 0, 0, 17, 0, 0, 0, 0, 0, 0]>, fillcolor="#39e55e"] ;
1711 -> 1771 ;
1772 [label=<Four of a kind &le; 2.5<br/>entropy = 0.454<br/>samples = 21<br/>value = [0, 0, 0, 19, 0, 0, 0, 2, 0, 0]>, fillcolor="#4ee86f"] ;
1710 -> 1772 ;
1773 [label=<entropy = 0.0<br/>samples = 19<br/>value = [0, 0, 0, 19, 0, 0, 0, 0, 0, 0]>, fillcolor="#39e55e"] ;
1772 -> 1773 ;
1774 [label=<entropy = 0.0<br/>samples = 2<br/>value = [0, 0, 0, 0, 0, 0, 0, 2, 0, 0]>, fillcolor="#a339e5"] ;
1772 -> 1774 ;
1775 [label=<One pair &le; 5.5<br/>entropy = 1.446<br/>samples = 6126<br/>value = [1571, 3859, 323, 308, 33, 2, 30, 0, 0, 0]>, fillcolor="#f0f29c"] ;
1127 -> 1775 ;
1776 [label=<Four of a kind &le; 5.5<br/>entropy = 1.566<br/>samples = 1178<br/>value = [280, 729, 66, 64, 33, 0, 6, 0, 0, 0]>, fillcolor="#f0f29c"] ;
1775 -> 1776 ;
1777 [label=<Nothing in hand &le; 3.5<br/>entropy = 1.729<br/>samples = 203<br/>value = [0, 94, 66, 4, 33, 0, 6, 0, 0, 0]>, fillcolor="#f9fad7"] ;
1776 -> 1777 ;
1778 [label=<Royal flush &le; 1.5<br/>entropy = 1.651<br/>samples = 157<br/>value = [0, 73, 51, 2, 29, 0, 2, 0, 0, 0]>, fillcolor="#f9fad6"] ;
1777 -> 1778 ;
1779 [label=<Flush &le; 1.5<br/>entropy = 1.646<br/>samples = 57<br/>value = [0, 22, 24, 0, 9, 0, 2, 0, 0, 0]>, fillcolor="#f7fef4"] ;
1778 -> 1779 ;
1780 [label=<Three of a kind &le; 1.5<br/>entropy = 1.3<br/>samples = 18<br/>value = [0, 5, 11, 0, 0, 0, 2, 0, 0, 0]>, fillcolor="#c2f3a4"] ;
1779 -> 1780 ;
1781 [label="(...)", fillcolor="#C0C0C0"] ;
1780 -> 1781 ;
1782 [label="(...)", fillcolor="#C0C0C0"] ;
1780 -> 1782 ;
1793 [label=<Three of a kind &le; 1.5<br/>entropy = 1.539<br/>samples = 39<br/>value = [0, 17, 13, 0, 9, 0, 0, 0, 0, 0]>, fillcolor="#fbfbe1"] ;
1779 -> 1793 ;
1794 [label="(...)", fillcolor="#C0C0C0"] ;
1793 -> 1794 ;
1805 [label="(...)", fillcolor="#C0C0C0"] ;
1793 -> 1805 ;
1824 [label=<Full house &le; 1.5<br/>entropy = 1.583<br/>samples = 100<br/>value = [0, 51, 27, 2, 20, 0, 0, 0, 0, 0]>, fillcolor="#f5f6be"] ;
1778 -> 1824 ;
1825 [label=<Three of a kind &le; 1.5<br/>entropy = 1.015<br/>samples = 25<br/>value = [0, 19, 4, 0, 2, 0, 0, 0, 0, 0]>, fillcolor="#eaec72"] ;
1824 -> 1825 ;
1826 [label="(...)", fillcolor="#C0C0C0"] ;
1825 -> 1826 ;
1833 [label="(...)", fillcolor="#C0C0C0"] ;
1825 -> 1833 ;
1840 [label=<Three of a kind &le; 1.5<br/>entropy = 1.681<br/>samples = 75<br/>value = [0, 32, 23, 2, 18, 0, 0, 0, 0, 0]>, fillcolor="#fafadd"] ;
1824 -> 1840 ;
1841 [label="(...)", fillcolor="#C0C0C0"] ;
1840 -> 1841 ;
1864 [label="(...)", fillcolor="#C0C0C0"] ;
1840 -> 1864 ;
1897 [label=<Full house &le; 1.5<br/>entropy = 1.853<br/>samples = 46<br/>value = [0, 21, 15, 2, 4, 0, 4, 0, 0, 0]>, fillcolor="#f9fad9"] ;
1777 -> 1897 ;
1898 [label=<Flush &le; 2.5<br/>entropy = 1.805<br/>samples = 16<br/>value = [0, 6, 5, 0, 1, 0, 4, 0, 0, 0]>, fillcolor="#fcfded"] ;
1897 -> 1898 ;
1899 [label=<Two pairs &le; 2.5<br/>entropy = 1.495<br/>samples = 11<br/>value = [0, 5, 2, 0, 0, 0, 4, 0, 0, 0]>, fillcolor="#fbfbe3"] ;
1898 -> 1899 ;
1900 [label="(...)", fillcolor="#C0C0C0"] ;
1899 -> 1900 ;
1903 [label="(...)", fillcolor="#C0C0C0"] ;
1899 -> 1903 ;
1906 [label=<Royal flush &le; 1.5<br/>entropy = 1.371<br/>samples = 5<br/>value = [0, 1, 3, 0, 1, 0, 0, 0, 0, 0]>, fillcolor="#bdf29c"] ;
1898 -> 1906 ;
1907 [label="(...)", fillcolor="#C0C0C0"] ;
1906 -> 1907 ;
1908 [label="(...)", fillcolor="#C0C0C0"] ;
1906 -> 1908 ;
1911 [label=<Full house &le; 3.5<br/>entropy = 1.621<br/>samples = 30<br/>value = [0, 15, 10, 2, 3, 0, 0, 0, 0, 0]>, fillcolor="#f8f8ce"] ;
1897 -> 1911 ;
1912 [label=<Straight &le; 3.5<br/>entropy = 1.603<br/>samples = 25<br/>value = [0, 11, 10, 1, 3, 0, 0, 0, 0, 0]>, fillcolor="#fdfdf2"] ;
1911 -> 1912 ;
1913 [label="(...)", fillcolor="#C0C0C0"] ;
1912 -> 1913 ;
1930 [label="(...)", fillcolor="#C0C0C0"] ;
1912 -> 1930 ;
1937 [label=<Straight flush &le; 3.5<br/>entropy = 0.722<br/>samples = 5<br/>value = [0, 4, 0, 1, 0, 0, 0, 0, 0, 0]>, fillcolor="#e9ec6a"] ;
1911 -> 1937 ;
1938 [label="(...)", fillcolor="#C0C0C0"] ;
1937 -> 1938 ;
1939 [label="(...)", fillcolor="#C0C0C0"] ;
1937 -> 1939 ;
1940 [label=<Royal flush &le; 1.5<br/>entropy = 1.167<br/>samples = 975<br/>value = [280, 635, 0, 60, 0, 0, 0, 0, 0, 0]>, fillcolor="#f0f29a"] ;
1776 -> 1940 ;
1941 [label=<Three of a kind &le; 1.5<br/>entropy = 1.191<br/>samples = 313<br/>value = [79, 208, 0, 26, 0, 0, 0, 0, 0, 0]>, fillcolor="#eff192"] ;
1940 -> 1941 ;
1942 [label=<Flush &le; 1.5<br/>entropy = 0.831<br/>samples = 99<br/>value = [0, 73, 0, 26, 0, 0, 0, 0, 0, 0]>, fillcolor="#ecee80"] ;
1941 -> 1942 ;
1943 [label=<entropy = 0.0<br/>samples = 26<br/>value = [0, 0, 0, 26, 0, 0, 0, 0, 0, 0]>, fillcolor="#39e55e"] ;
1942 -> 1943 ;
1944 [label=<entropy = 0.0<br/>samples = 73<br/>value = [0, 73, 0, 0, 0, 0, 0, 0, 0, 0]>, fillcolor="#e2e539"] ;
1942 -> 1944 ;
1945 [label=<Flush &le; 1.5<br/>entropy = 0.95<br/>samples = 214<br/>value = [79, 135, 0, 0, 0, 0, 0, 0, 0, 0]>, fillcolor="#f3f4ad"] ;
1941 -> 1945 ;
1946 [label=<entropy = 0.0<br/>samples = 66<br/>value = [0, 66, 0, 0, 0, 0, 0, 0, 0, 0]>, fillcolor="#e2e539"] ;
1945 -> 1946 ;
1947 [label=<Full house &le; 1.5<br/>entropy = 0.997<br/>samples = 148<br/>value = [79, 69, 0, 0, 0, 0, 0, 0, 0, 0]>, fillcolor="#fcefe6"] ;
1945 -> 1947 ;
1948 [label="(...)", fillcolor="#C0C0C0"] ;
1947 -> 1948 ;
1983 [label="(...)", fillcolor="#C0C0C0"] ;
1947 -> 1983 ;
1990 [label=<Flush &le; 1.5<br/>entropy = 1.15<br/>samples = 662<br/>value = [201, 427, 0, 34, 0, 0, 0, 0, 0, 0]>, fillcolor="#f1f29e"] ;
1940 -> 1990 ;
1991 [label=<Three of a kind &le; 1.5<br/>entropy = 0.978<br/>samples = 250<br/>value = [103, 147, 0, 0, 0, 0, 0, 0, 0, 0]>, fillcolor="#f6f7c4"] ;
1990 -> 1991 ;
1992 [label=<entropy = 0.0<br/>samples = 70<br/>value = [0, 70, 0, 0, 0, 0, 0, 0, 0, 0]>, fillcolor="#e2e539"] ;
1991 -> 1992 ;
1993 [label=<Four of a kind &le; 11.5<br/>entropy = 0.985<br/>samples = 180<br/>value = [103, 77, 0, 0, 0, 0, 0, 0, 0, 0]>, fillcolor="#f8dfcd"] ;
1991 -> 1993 ;
1994 [label="(...)", fillcolor="#C0C0C0"] ;
1993 -> 1994 ;
2089 [label="(...)", fillcolor="#C0C0C0"] ;
1993 -> 2089 ;
2096 [label=<Three of a kind &le; 1.5<br/>entropy = 1.169<br/>samples = 412<br/>value = [98, 280, 0, 34, 0, 0, 0, 0, 0, 0]>, fillcolor="#eef08c"] ;
1990 -> 2096 ;
2097 [label=<One pair &le; 4.5<br/>entropy = 0.968<br/>samples = 162<br/>value = [98, 64, 0, 0, 0, 0, 0, 0, 0, 0]>, fillcolor="#f6d3ba"] ;
2096 -> 2097 ;
2098 [label="(...)", fillcolor="#C0C0C0"] ;
2097 -> 2098 ;
2133 [label="(...)", fillcolor="#C0C0C0"] ;
2097 -> 2133 ;
2192 [label=<Four of a kind &le; 11.5<br/>entropy = 0.574<br/>samples = 250<br/>value = [0, 216, 0, 34, 0, 0, 0, 0, 0, 0]>, fillcolor="#e7e958"] ;
2096 -> 2192 ;
2193 [label="(...)", fillcolor="#C0C0C0"] ;
2192 -> 2193 ;
2262 [label="(...)", fillcolor="#C0C0C0"] ;
2192 -> 2262 ;
2287 [label=<Four of a kind &le; 5.5<br/>entropy = 1.401<br/>samples = 4948<br/>value = [1291, 3130, 257, 244, 0, 2, 24, 0, 0, 0]>, fillcolor="#f0f29b"] ;
1775 -> 2287 ;
2288 [label=<Straight flush &le; 1.5<br/>entropy = 1.153<br/>samples = 982<br/>value = [303, 631, 0, 47, 0, 1, 0, 0, 0, 0]>, fillcolor="#f1f29f"] ;
2287 -> 2288 ;
2289 [label=<Two pairs &le; 1.5<br/>entropy = 1.137<br/>samples = 251<br/>value = [61, 174, 0, 15, 0, 1, 0, 0, 0, 0]>, fillcolor="#eef089"] ;
2288 -> 2289 ;
2290 [label=<Straight &le; 1.5<br/>entropy = 1.087<br/>samples = 44<br/>value = [16, 27, 0, 0, 0, 1, 0, 0, 0, 0]>, fillcolor="#f4f5b1"] ;
2289 -> 2290 ;
2291 [label=<One pair &le; 9.5<br/>entropy = 0.592<br/>samples = 7<br/>value = [6, 0, 0, 0, 0, 1, 0, 0, 0, 0]>, fillcolor="#e9965a"] ;
2290 -> 2291 ;
2292 [label="(...)", fillcolor="#C0C0C0"] ;
2291 -> 2292 ;
2293 [label="(...)", fillcolor="#C0C0C0"] ;
2291 -> 2293 ;
2296 [label=<Full house &le; 1.5<br/>entropy = 0.842<br/>samples = 37<br/>value = [10, 27, 0, 0, 0, 0, 0, 0, 0, 0]>, fillcolor="#edef82"] ;
2290 -> 2296 ;
2297 [label="(...)", fillcolor="#C0C0C0"] ;
2296 -> 2297 ;
2298 [label="(...)", fillcolor="#C0C0C0"] ;
2296 -> 2298 ;
2327 [label=<Four of a kind &le; 4.5<br/>entropy = 1.104<br/>samples = 207<br/>value = [45, 147, 0, 15, 0, 0, 0, 0, 0, 0]>, fillcolor="#edef82"] ;
2289 -> 2327 ;
2328 [label=<Straight &le; 3.5<br/>entropy = 0.918<br/>samples = 94<br/>value = [12, 75, 0, 7, 0, 0, 0, 0, 0, 0]>, fillcolor="#e9eb67"] ;
2327 -> 2328 ;
2329 [label="(...)", fillcolor="#C0C0C0"] ;
2328 -> 2329 ;
2374 [label="(...)", fillcolor="#C0C0C0"] ;
2328 -> 2374 ;
2387 [label=<Royal flush &le; 2.5<br/>entropy = 1.203<br/>samples = 113<br/>value = [33, 72, 0, 8, 0, 0, 0, 0, 0, 0]>, fillcolor="#f1f29e"] ;
2327 -> 2387 ;
2388 [label="(...)", fillcolor="#C0C0C0"] ;
2387 -> 2388 ;
2431 [label="(...)", fillcolor="#C0C0C0"] ;
2387 -> 2431 ;
2452 [label=<Two pairs &le; 2.5<br/>entropy = 1.149<br/>samples = 731<br/>value = [242, 457, 0, 32, 0, 0, 0, 0, 0, 0]>, fillcolor="#f2f4a8"] ;
2288 -> 2452 ;
2453 [label=<Royal flush &le; 2.5<br/>entropy = 1.108<br/>samples = 360<br/>value = [101, 242, 0, 17, 0, 0, 0, 0, 0, 0]>, fillcolor="#eff193"] ;
2452 -> 2453 ;
2454 [label=<Three of a kind &le; 2.5<br/>entropy = 1.043<br/>samples = 249<br/>value = [58, 179, 0, 12, 0, 0, 0, 0, 0, 0]>, fillcolor="#edef82"] ;
2453 -> 2454 ;
2455 [label="(...)", fillcolor="#C0C0C0"] ;
2454 -> 2455 ;
2518 [label="(...)", fillcolor="#C0C0C0"] ;
2454 -> 2518 ;
2555 [label=<Three of a kind &le; 2.5<br/>entropy = 1.195<br/>samples = 111<br/>value = [43, 63, 0, 5, 0, 0, 0, 0, 0, 0]>, fillcolor="#f6f7c5"] ;
2453 -> 2555 ;
2556 [label="(...)", fillcolor="#C0C0C0"] ;
2555 -> 2556 ;
2597 [label="(...)", fillcolor="#C0C0C0"] ;
2555 -> 2597 ;
2600 [label=<Straight &le; 1.5<br/>entropy = 1.174<br/>samples = 371<br/>value = [141, 215, 0, 15, 0, 0, 0, 0, 0, 0]>, fillcolor="#f6f7bf"] ;
2452 -> 2600 ;
2601 [label=<One pair &le; 6.5<br/>entropy = 1.217<br/>samples = 114<br/>value = [35, 71, 0, 8, 0, 0, 0, 0, 0, 0]>, fillcolor="#f2f3a5"] ;
2600 -> 2601 ;
2602 [label="(...)", fillcolor="#C0C0C0"] ;
2601 -> 2602 ;
2609 [label="(...)", fillcolor="#C0C0C0"] ;
2601 -> 2609 ;
2690 [label=<Royal flush &le; 2.5<br/>entropy = 1.137<br/>samples = 257<br/>value = [106, 144, 0, 7, 0, 0, 0, 0, 0, 0]>, fillcolor="#f8f8cd"] ;
2600 -> 2690 ;
2691 [label="(...)", fillcolor="#C0C0C0"] ;
2690 -> 2691 ;
2760 [label="(...)", fillcolor="#C0C0C0"] ;
2690 -> 2760 ;
2791 [label=<Straight flush &le; 3.5<br/>entropy = 1.438<br/>samples = 3966<br/>value = [988, 2499, 257, 197, 0, 1, 24, 0, 0, 0]>, fillcolor="#f0f29b"] ;
2287 -> 2791 ;
2792 [label=<Two pairs &le; 3.5<br/>entropy = 1.427<br/>samples = 2951<br/>value = [728, 1875, 174, 155, 0, 1, 18, 0, 0, 0]>, fillcolor="#f0f299"] ;
2791 -> 2792 ;
2793 [label=<Straight &le; 3.5<br/>entropy = 1.408<br/>samples = 2116<br/>value = [542, 1345, 118, 95, 0, 1, 15, 0, 0, 0]>, fillcolor="#f0f29a"] ;
2792 -> 2793 ;
2794 [label=<Straight flush &le; 2.5<br/>entropy = 1.353<br/>samples = 1464<br/>value = [402, 931, 80, 41, 0, 1, 9, 0, 0, 0]>, fillcolor="#f1f29c"] ;
2793 -> 2794 ;
2795 [label="(...)", fillcolor="#C0C0C0"] ;
2794 -> 2795 ;
3552 [label="(...)", fillcolor="#C0C0C0"] ;
2794 -> 3552 ;
3841 [label=<One pair &le; 10.5<br/>entropy = 1.492<br/>samples = 652<br/>value = [140, 414, 38, 54, 0, 0, 6, 0, 0, 0]>, fillcolor="#eff195"] ;
2793 -> 3841 ;
3842 [label="(...)", fillcolor="#C0C0C0"] ;
3841 -> 3842 ;
4091 [label="(...)", fillcolor="#C0C0C0"] ;
3841 -> 4091 ;
4274 [label=<Straight &le; 3.5<br/>entropy = 1.462<br/>samples = 835<br/>value = [186, 530, 56, 60, 0, 0, 3, 0, 0, 0]>, fillcolor="#f0f196"] ;
2792 -> 4274 ;
4275 [label=<One pair &le; 6.5<br/>entropy = 1.502<br/>samples = 676<br/>value = [138, 427, 48, 60, 0, 0, 3, 0, 0, 0]>, fillcolor="#eff195"] ;
4274 -> 4275 ;
4276 [label="(...)", fillcolor="#C0C0C0"] ;
4275 -> 4276 ;
4337 [label="(...)", fillcolor="#C0C0C0"] ;
4275 -> 4337 ;
4718 [label=<Nothing in hand &le; 3.5<br/>entropy = 1.144<br/>samples = 159<br/>value = [48, 103, 8, 0, 0, 0, 0, 0, 0, 0]>, fillcolor="#f1f29d"] ;
4274 -> 4718 ;
4719 [label="(...)", fillcolor="#C0C0C0"] ;
4718 -> 4719 ;
4788 [label="(...)", fillcolor="#C0C0C0"] ;
4718 -> 4788 ;
4823 [label=<Two pairs &le; 3.5<br/>entropy = 1.464<br/>samples = 1015<br/>value = [260, 624, 83, 42, 0, 0, 6, 0, 0, 0]>, fillcolor="#f1f2a0"] ;
2791 -> 4823 ;
4824 [label=<Straight &le; 3.5<br/>entropy = 1.467<br/>samples = 831<br/>value = [201, 520, 62, 42, 0, 0, 6, 0, 0, 0]>, fillcolor="#f0f29b"] ;
4823 -> 4824 ;
4825 [label=<Full house &le; 3.5<br/>entropy = 1.501<br/>samples = 679<br/>value = [154, 425, 52, 42, 0, 0, 6, 0, 0, 0]>, fillcolor="#f0f299"] ;
4824 -> 4825 ;
4826 [label="(...)", fillcolor="#C0C0C0"] ;
4825 -> 4826 ;
5173 [label="(...)", fillcolor="#C0C0C0"] ;
4825 -> 5173 ;
5302 [label=<Nothing in hand &le; 2.5<br/>entropy = 1.206<br/>samples = 152<br/>value = [47, 95, 10, 0, 0, 0, 0, 0, 0, 0]>, fillcolor="#f2f3a4"] ;
4824 -> 5302 ;
5303 [label="(...)", fillcolor="#C0C0C0"] ;
5302 -> 5303 ;
5370 [label="(...)", fillcolor="#C0C0C0"] ;
5302 -> 5370 ;
5415 [label=<Straight &le; 3.5<br/>entropy = 1.349<br/>samples = 184<br/>value = [59, 104, 21, 0, 0, 0, 0, 0, 0, 0]>, fillcolor="#f5f6b8"] ;
4823 -> 5415 ;
5416 [label=<Flush &le; 2.5<br/>entropy = 1.321<br/>samples = 172<br/>value = [47, 104, 21, 0, 0, 0, 0, 0, 0, 0]>, fillcolor="#f2f3a5"] ;
5415 -> 5416 ;
5417 [label="(...)", fillcolor="#C0C0C0"] ;
5416 -> 5417 ;
5496 [label="(...)", fillcolor="#C0C0C0"] ;
5416 -> 5496 ;
5529 [label=<entropy = 0.0<br/>samples = 12<br/>value = [12, 0, 0, 0, 0, 0, 0, 0, 0, 0]>, fillcolor="#e58139"] ;
5415 -> 5529 ;
5530 [label=<Four of a kind &le; 3.5<br/>entropy = 1.484<br/>samples = 37077<br/>value = [16359, 17113, 2399, 992, 83, 64, 59, 7, 1, 0]>, fillcolor="#fefef8"] ;
2 -> 5530 ;
5531 [label=<One pair &le; 3.5<br/>entropy = 1.598<br/>samples = 7578<br/>value = [1627, 4593, 666, 622, 34, 8, 20, 7, 1, 0]>, fillcolor="#f1f29c"] ;
5530 -> 5531 ;
5532 [label=<Straight &le; 1.5<br/>entropy = 1.442<br/>samples = 1462<br/>value = [0, 835, 349, 271, 0, 0, 0, 7, 0, 0]>, fillcolor="#f2f4a9"] ;
5531 -> 5532 ;
5533 [label=<Three of a kind &le; 12.5<br/>entropy = 1.462<br/>samples = 369<br/>value = [0, 196, 96, 77, 0, 0, 0, 0, 0, 0]>, fillcolor="#f4f5b6"] ;
5532 -> 5533 ;
5534 [label=<Straight flush &le; 1.5<br/>entropy = 1.462<br/>samples = 337<br/>value = [0, 177, 94, 66, 0, 0, 0, 0, 0, 0]>, fillcolor="#f5f6bb"] ;
5533 -> 5534 ;
5535 [label=<One pair &le; 2.5<br/>entropy = 1.136<br/>samples = 60<br/>value = [0, 41, 15, 4, 0, 0, 0, 0, 0, 0]>, fillcolor="#eef08d"] ;
5534 -> 5535 ;
5536 [label=<Flush &le; 1.5<br/>entropy = 1.313<br/>samples = 37<br/>value = [0, 22, 11, 4, 0, 0, 0, 0, 0, 0]>, fillcolor="#f3f4ab"] ;
5535 -> 5536 ;
5537 [label=<Four of a kind &le; 1.5<br/>entropy = 0.918<br/>samples = 6<br/>value = [0, 0, 4, 2, 0, 0, 0, 0, 0, 0]>, fillcolor="#bdf29c"] ;
5536 -> 5537 ;
5538 [label="(...)", fillcolor="#C0C0C0"] ;
5537 -> 5538 ;
5541 [label="(...)", fillcolor="#C0C0C0"] ;
5537 -> 5541 ;
5542 [label=<Four of a kind &le; 2.5<br/>entropy = 1.091<br/>samples = 31<br/>value = [0, 22, 7, 2, 0, 0, 0, 0, 0, 0]>, fillcolor="#edef83"] ;
5536 -> 5542 ;
5543 [label="(...)", fillcolor="#C0C0C0"] ;
5542 -> 5543 ;
5554 [label="(...)", fillcolor="#C0C0C0"] ;
5542 -> 5554 ;
5561 [label=<Flush &le; 2.5<br/>entropy = 0.667<br/>samples = 23<br/>value = [0, 19, 4, 0, 0, 0, 0, 0, 0, 0]>, fillcolor="#e8ea63"] ;
5535 -> 5561 ;
5562 [label=<Four of a kind &le; 1.5<br/>entropy = 0.297<br/>samples = 19<br/>value = [0, 18, 1, 0, 0, 0, 0, 0, 0, 0]>, fillcolor="#e4e644"] ;
5561 -> 5562 ;
5563 [label="(...)", fillcolor="#C0C0C0"] ;
5562 -> 5563 ;
5566 [label="(...)", fillcolor="#C0C0C0"] ;
5562 -> 5566 ;
5567 [label=<Three of a kind &le; 10.0<br/>entropy = 0.811<br/>samples = 4<br/>value = [0, 1, 3, 0, 0, 0, 0, 0, 0, 0]>, fillcolor="#a7ee7b"] ;
5561 -> 5567 ;
5568 [label="(...)", fillcolor="#C0C0C0"] ;
5567 -> 5568 ;
5569 [label="(...)", fillcolor="#C0C0C0"] ;
5567 -> 5569 ;
5570 [label=<Three of a kind &le; 10.5<br/>entropy = 1.503<br/>samples = 277<br/>value = [0, 136, 79, 62, 0, 0, 0, 0, 0, 0]>, fillcolor="#f7f8c6"] ;
5534 -> 5570 ;
5571 [label=<Two pairs &le; 3.5<br/>entropy = 1.475<br/>samples = 212<br/>value = [0, 111, 50, 51, 0, 0, 0, 0, 0, 0]>, fillcolor="#f4f5b5"] ;
5570 -> 5571 ;
5572 [label=<Three of a kind &le; 5.5<br/>entropy = 1.484<br/>samples = 161<br/>value = [0, 82, 45, 34, 0, 0, 0, 0, 0, 0]>, fillcolor="#f6f7c0"] ;
5571 -> 5572 ;
5573 [label="(...)", fillcolor="#C0C0C0"] ;
5572 -> 5573 ;
5612 [label="(...)", fillcolor="#C0C0C0"] ;
5572 -> 5612 ;
5721 [label=<Full house &le; 2.5<br/>entropy = 1.32<br/>samples = 51<br/>value = [0, 29, 5, 17, 0, 0, 0, 0, 0, 0]>, fillcolor="#f5f6b9"] ;
5571 -> 5721 ;
5722 [label="(...)", fillcolor="#C0C0C0"] ;
5721 -> 5722 ;
5733 [label="(...)", fillcolor="#C0C0C0"] ;
5721 -> 5733 ;
5762 [label=<Royal flush &le; 1.5<br/>entropy = 1.483<br/>samples = 65<br/>value = [0, 25, 29, 11, 0, 0, 0, 0, 0, 0]>, fillcolor="#f2fceb"] ;
5570 -> 5762 ;
5763 [label=<Four of a kind &le; 2.5<br/>entropy = 1.58<br/>samples = 17<br/>value = [0, 5, 6, 6, 0, 0, 0, 0, 0, 0]>, fillcolor="#ffffff"] ;
5762 -> 5763 ;
5764 [label="(...)", fillcolor="#C0C0C0"] ;
5763 -> 5764 ;
5777 [label="(...)", fillcolor="#C0C0C0"] ;
5763 -> 5777 ;
5780 [label=<Straight flush &le; 3.5<br/>entropy = 1.375<br/>samples = 48<br/>value = [0, 20, 23, 5, 0, 0, 0, 0, 0, 0]>, fillcolor="#f1fcea"] ;
5762 -> 5780 ;
5781 [label="(...)", fillcolor="#C0C0C0"] ;
5780 -> 5781 ;
5810 [label="(...)", fillcolor="#C0C0C0"] ;
5780 -> 5810 ;
5819 [label=<Full house &le; 1.5<br/>entropy = 1.226<br/>samples = 32<br/>value = [0, 19, 2, 11, 0, 0, 0, 0, 0, 0]>, fillcolor="#f4f5b4"] ;
5533 -> 5819 ;
5820 [label=<Royal flush &le; 1.5<br/>entropy = 0.918<br/>samples = 6<br/>value = [0, 4, 2, 0, 0, 0, 0, 0, 0, 0]>, fillcolor="#f0f29c"] ;
5819 -> 5820 ;
5821 [label=<entropy = 0.0<br/>samples = 1<br/>value = [0, 0, 1, 0, 0, 0, 0, 0, 0, 0]>, fillcolor="#7be539"] ;
5820 -> 5821 ;
5822 [label=<Flush &le; 2.5<br/>entropy = 0.722<br/>samples = 5<br/>value = [0, 4, 1, 0, 0, 0, 0, 0, 0, 0]>, fillcolor="#e9ec6a"] ;
5820 -> 5822 ;
5823 [label=<entropy = 0.0<br/>samples = 4<br/>value = [0, 4, 0, 0, 0, 0, 0, 0, 0, 0]>, fillcolor="#e2e539"] ;
5822 -> 5823 ;
5824 [label=<entropy = 0.0<br/>samples = 1<br/>value = [0, 0, 1, 0, 0, 0, 0, 0, 0, 0]>, fillcolor="#7be539"] ;
5822 -> 5824 ;
5825 [label=<Flush &le; 1.5<br/>entropy = 0.983<br/>samples = 26<br/>value = [0, 15, 0, 11, 0, 0, 0, 0, 0, 0]>, fillcolor="#f7f8ca"] ;
5819 -> 5825 ;
5826 [label=<Nothing in hand &le; 3.5<br/>entropy = 0.971<br/>samples = 15<br/>value = [0, 6, 0, 9, 0, 0, 0, 0, 0, 0]>, fillcolor="#bdf6c9"] ;
5825 -> 5826 ;
5827 [label=<Four of a kind &le; 1.5<br/>entropy = 0.845<br/>samples = 11<br/>value = [0, 3, 0, 8, 0, 0, 0, 0, 0, 0]>, fillcolor="#83ef9a"] ;
5826 -> 5827 ;
5828 [label="(...)", fillcolor="#C0C0C0"] ;
5827 -> 5828 ;
5829 [label="(...)", fillcolor="#C0C0C0"] ;
5827 -> 5829 ;
5834 [label=<Four of a kind &le; 2.5<br/>entropy = 0.811<br/>samples = 4<br/>value = [0, 3, 0, 1, 0, 0, 0, 0, 0, 0]>, fillcolor="#ecee7b"] ;
5826 -> 5834 ;
5835 [label="(...)", fillcolor="#C0C0C0"] ;
5834 -> 5835 ;
5836 [label="(...)", fillcolor="#C0C0C0"] ;
5834 -> 5836 ;
5837 [label=<One pair &le; 1.5<br/>entropy = 0.684<br/>samples = 11<br/>value = [0, 9, 0, 2, 0, 0, 0, 0, 0, 0]>, fillcolor="#e8eb65"] ;
5825 -> 5837 ;
5838 [label=<Two pairs &le; 1.5<br/>entropy = 0.918<br/>samples = 3<br/>value = [0, 1, 0, 2, 0, 0, 0, 0, 0, 0]>, fillcolor="#9cf2ae"] ;
5837 -> 5838 ;
5839 [label="(...)", fillcolor="#C0C0C0"] ;
5838 -> 5839 ;
5840 [label="(...)", fillcolor="#C0C0C0"] ;
5838 -> 5840 ;
5841 [label=<entropy = 0.0<br/>samples = 8<br/>value = [0, 8, 0, 0, 0, 0, 0, 0, 0, 0]>, fillcolor="#e2e539"] ;
5837 -> 5841 ;
5842 [label=<One pair &le; 1.5<br/>entropy = 1.431<br/>samples = 1093<br/>value = [0, 639, 253, 194, 0, 0, 0, 7, 0, 0]>, fillcolor="#f2f3a4"] ;
5532 -> 5842 ;
5843 [label=<Flush &le; 1.5<br/>entropy = 1.456<br/>samples = 330<br/>value = [0, 184, 70, 75, 0, 0, 0, 1, 0, 0]>, fillcolor="#f3f4aa"] ;
5842 -> 5843 ;
5844 [label=<Four of a kind &le; 1.5<br/>entropy = 1.641<br/>samples = 93<br/>value = [0, 30, 26, 36, 0, 0, 0, 1, 0, 0]>, fillcolor="#ecfdf0"] ;
5843 -> 5844 ;
5845 [label=<Royal flush &le; 1.5<br/>entropy = 0.25<br/>samples = 24<br/>value = [0, 0, 0, 23, 0, 0, 0, 1, 0, 0]>, fillcolor="#42e665"] ;
5844 -> 5845 ;
5846 [label=<entropy = 0.0<br/>samples = 1<br/>value = [0, 0, 0, 0, 0, 0, 0, 1, 0, 0]>, fillcolor="#a339e5"] ;
5845 -> 5846 ;
5847 [label=<entropy = 0.0<br/>samples = 23<br/>value = [0, 0, 0, 23, 0, 0, 0, 0, 0, 0]>, fillcolor="#39e55e"] ;
5845 -> 5847 ;
5848 [label=<Royal flush &le; 1.5<br/>entropy = 1.507<br/>samples = 69<br/>value = [0, 30, 26, 13, 0, 0, 0, 0, 0, 0]>, fillcolor="#fcfded"] ;
5844 -> 5848 ;
5849 [label=<entropy = 0.0<br/>samples = 13<br/>value = [0, 0, 0, 13, 0, 0, 0, 0, 0, 0]>, fillcolor="#39e55e"] ;
5848 -> 5849 ;
5850 [label=<Three of a kind &le; 7.5<br/>entropy = 0.996<br/>samples = 56<br/>value = [0, 30, 26, 0, 0, 0, 0, 0, 0, 0]>, fillcolor="#fbfce5"] ;
5848 -> 5850 ;
5851 [label="(...)", fillcolor="#C0C0C0"] ;
5850 -> 5851 ;
5870 [label="(...)", fillcolor="#C0C0C0"] ;
5850 -> 5870 ;
5879 [label=<Four of a kind &le; 1.5<br/>entropy = 1.284<br/>samples = 237<br/>value = [0, 154, 44, 39, 0, 0, 0, 0, 0, 0]>, fillcolor="#eef08e"] ;
5843 -> 5879 ;
5880 [label=<Royal flush &le; 1.5<br/>entropy = 1.502<br/>samples = 78<br/>value = [0, 36, 27, 15, 0, 0, 0, 0, 0, 0]>, fillcolor="#fafadc"] ;
5879 -> 5880 ;
5881 [label=<entropy = 0.0<br/>samples = 15<br/>value = [0, 0, 0, 15, 0, 0, 0, 0, 0, 0]>, fillcolor="#39e55e"] ;
5880 -> 5881 ;
5882 [label=<Three of a kind &le; 11.5<br/>entropy = 0.985<br/>samples = 63<br/>value = [0, 36, 27, 0, 0, 0, 0, 0, 0, 0]>, fillcolor="#f8f8ce"] ;
5880 -> 5882 ;
5883 [label="(...)", fillcolor="#C0C0C0"] ;
5882 -> 5883 ;
5920 [label="(...)", fillcolor="#C0C0C0"] ;
5882 -> 5920 ;
5925 [label=<Royal flush &le; 1.5<br/>entropy = 1.076<br/>samples = 159<br/>value = [0, 118, 17, 24, 0, 0, 0, 0, 0, 0]>, fillcolor="#ebed75"] ;
5879 -> 5925 ;
5926 [label=<Flush &le; 2.5<br/>entropy = 0.944<br/>samples = 47<br/>value = [0, 30, 17, 0, 0, 0, 0, 0, 0, 0]>, fillcolor="#f2f4a9"] ;
5925 -> 5926 ;
5927 [label="(...)", fillcolor="#C0C0C0"] ;
5926 -> 5927 ;
5930 [label="(...)", fillcolor="#C0C0C0"] ;
5926 -> 5930 ;
5933 [label=<Straight flush &le; 3.5<br/>entropy = 0.75<br/>samples = 112<br/>value = [0, 88, 0, 24, 0, 0, 0, 0, 0, 0]>, fillcolor="#eaec6f"] ;
5925 -> 5933 ;
5934 [label="(...)", fillcolor="#C0C0C0"] ;
5933 -> 5934 ;
5955 [label="(...)", fillcolor="#C0C0C0"] ;
5933 -> 5955 ;
5964 [label=<Flush &le; 1.5<br/>entropy = 1.412<br/>samples = 763<br/>value = [0, 455, 183, 119, 0, 0, 0, 6, 0, 0]>, fillcolor="#f1f3a2"] ;
5842 -> 5964 ;
5965 [label=<Royal flush &le; 1.5<br/>entropy = 1.095<br/>samples = 267<br/>value = [0, 193, 52, 22, 0, 0, 0, 0, 0, 0]>, fillcolor="#ecee7d"] ;
5964 -> 5965 ;
5966 [label=<Four of a kind &le; 1.5<br/>entropy = 1.393<br/>samples = 67<br/>value = [0, 34, 25, 8, 0, 0, 0, 0, 0, 0]>, fillcolor="#f9f9d5"] ;
5965 -> 5966 ;
5967 [label=<entropy = 0.0<br/>samples = 8<br/>value = [0, 0, 0, 8, 0, 0, 0, 0, 0, 0]>, fillcolor="#39e55e"] ;
5966 -> 5967 ;
5968 [label=<Nothing in hand &le; 2.5<br/>entropy = 0.983<br/>samples = 59<br/>value = [0, 34, 25, 0, 0, 0, 0, 0, 0, 0]>, fillcolor="#f7f8cb"] ;
5966 -> 5968 ;
5969 [label="(...)", fillcolor="#C0C0C0"] ;
5968 -> 5969 ;
5992 [label="(...)", fillcolor="#C0C0C0"] ;
5968 -> 5992 ;
6019 [label=<Four of a kind &le; 1.5<br/>entropy = 0.922<br/>samples = 200<br/>value = [0, 159, 27, 14, 0, 0, 0, 0, 0, 0]>, fillcolor="#e9eb68"] ;
5965 -> 6019 ;
6020 [label=<Full house &le; 1.5<br/>entropy = 0.973<br/>samples = 67<br/>value = [0, 40, 27, 0, 0, 0, 0, 0, 0, 0]>, fillcolor="#f6f7bf"] ;
6019 -> 6020 ;
6021 [label="(...)", fillcolor="#C0C0C0"] ;
6020 -> 6021 ;
6034 [label="(...)", fillcolor="#C0C0C0"] ;
6020 -> 6034 ;
6041 [label=<Three of a kind &le; 12.5<br/>entropy = 0.485<br/>samples = 133<br/>value = [0, 119, 0, 14, 0, 0, 0, 0, 0, 0]>, fillcolor="#e5e850"] ;
6019 -> 6041 ;
6042 [label="(...)", fillcolor="#C0C0C0"] ;
6041 -> 6042 ;
6101 [label="(...)", fillcolor="#C0C0C0"] ;
6041 -> 6101 ;
6102 [label=<Royal flush &le; 1.5<br/>entropy = 1.531<br/>samples = 496<br/>value = [0, 262, 131, 97, 0, 0, 0, 6, 0, 0]>, fillcolor="#f5f6b8"] ;
5964 -> 6102 ;
6103 [label=<Four of a kind &le; 1.5<br/>entropy = 0.994<br/>samples = 207<br/>value = [0, 159, 32, 16, 0, 0, 0, 0, 0, 0]>, fillcolor="#eaec6f"] ;
6102 -> 6103 ;
6104 [label=<Three of a kind &le; 6.5<br/>entropy = 0.987<br/>samples = 74<br/>value = [0, 42, 32, 0, 0, 0, 0, 0, 0, 0]>, fillcolor="#f8f9d0"] ;
6103 -> 6104 ;
6105 [label="(...)", fillcolor="#C0C0C0"] ;
6104 -> 6105 ;
6120 [label="(...)", fillcolor="#C0C0C0"] ;
6104 -> 6120 ;
6127 [label=<Two pairs &le; 3.5<br/>entropy = 0.53<br/>samples = 133<br/>value = [0, 117, 0, 16, 0, 0, 0, 0, 0, 0]>, fillcolor="#e6e954"] ;
6103 -> 6127 ;
6128 [label="(...)", fillcolor="#C0C0C0"] ;
6127 -> 6128 ;
6179 [label="(...)", fillcolor="#C0C0C0"] ;
6127 -> 6179 ;
6184 [label=<Four of a kind &le; 1.5<br/>entropy = 1.69<br/>samples = 289<br/>value = [0, 103, 99, 81, 0, 0, 0, 6, 0, 0]>, fillcolor="#fefefb"] ;
6102 -> 6184 ;
6185 [label=<Straight &le; 3.5<br/>entropy = 0.589<br/>samples = 120<br/>value = [0, 103, 0, 17, 0, 0, 0, 0, 0, 0]>, fillcolor="#e7e95a"] ;
6184 -> 6185 ;
6186 [label="(...)", fillcolor="#C0C0C0"] ;
6185 -> 6186 ;
6213 [label="(...)", fillcolor="#C0C0C0"] ;
6185 -> 6213 ;
6228 [label=<Full house &le; 3.5<br/>entropy = 1.153<br/>samples = 169<br/>value = [0, 0, 99, 64, 0, 0, 0, 6, 0, 0]>, fillcolor="#d3f6bd"] ;
6184 -> 6228 ;
6229 [label="(...)", fillcolor="#C0C0C0"] ;
6228 -> 6229 ;
6332 [label="(...)", fillcolor="#C0C0C0"] ;
6228 -> 6332 ;
6371 [label=<One pair &le; 5.5<br/>entropy = 1.481<br/>samples = 6116<br/>value = [1627, 3758, 317, 351, 34, 8, 20, 0, 1, 0]>, fillcolor="#f1f3a1"] ;
5531 -> 6371 ;
6372 [label=<Three of a kind &le; 5.5<br/>entropy = 1.574<br/>samples = 1213<br/>value = [286, 748, 63, 78, 34, 2, 1, 0, 1, 0]>, fillcolor="#f1f29c"] ;
6371 -> 6372 ;
6373 [label=<Flush &le; 2.5<br/>entropy = 1.578<br/>samples = 225<br/>value = [0, 122, 63, 4, 34, 0, 1, 0, 1, 0]>, fillcolor="#f4f6b7"] ;
6372 -> 6373 ;
6374 [label=<Royal flush &le; 2.5<br/>entropy = 1.347<br/>samples = 155<br/>value = [0, 90, 46, 0, 19, 0, 0, 0, 0, 0]>, fillcolor="#f3f5af"] ;
6373 -> 6374 ;
6375 [label=<Four of a kind &le; 2.5<br/>entropy = 1.256<br/>samples = 90<br/>value = [0, 51, 33, 0, 6, 0, 0, 0, 0, 0]>, fillcolor="#f6f7c0"] ;
6374 -> 6375 ;
6376 [label=<Flush &le; 1.5<br/>entropy = 0.997<br/>samples = 58<br/>value = [0, 31, 27, 0, 0, 0, 0, 0, 0, 0]>, fillcolor="#fbfce5"] ;
6375 -> 6376 ;
6377 [label="(...)", fillcolor="#C0C0C0"] ;
6376 -> 6377 ;
6394 [label="(...)", fillcolor="#C0C0C0"] ;
6376 -> 6394 ;
6417 [label=<Straight &le; 2.5<br/>entropy = 1.329<br/>samples = 32<br/>value = [0, 20, 6, 0, 6, 0, 0, 0, 0, 0]>, fillcolor="#eff194"] ;
6375 -> 6417 ;
6418 [label="(...)", fillcolor="#C0C0C0"] ;
6417 -> 6418 ;
6431 [label="(...)", fillcolor="#C0C0C0"] ;
6417 -> 6431 ;
6448 [label=<Four of a kind &le; 2.5<br/>entropy = 1.371<br/>samples = 65<br/>value = [0, 39, 13, 0, 13, 0, 0, 0, 0, 0]>, fillcolor="#f0f29c"] ;
6374 -> 6448 ;
6449 [label=<Straight flush &le; 2.5<br/>entropy = 1.337<br/>samples = 47<br/>value = [0, 28, 6, 0, 13, 0, 0, 0, 0, 0]>, fillcolor="#f2f4a8"] ;
6448 -> 6449 ;
6450 [label="(...)", fillcolor="#C0C0C0"] ;
6449 -> 6450 ;
6469 [label="(...)", fillcolor="#C0C0C0"] ;
6449 -> 6469 ;
6492 [label=<Full house &le; 1.5<br/>entropy = 0.964<br/>samples = 18<br/>value = [0, 11, 7, 0, 0, 0, 0, 0, 0, 0]>, fillcolor="#f4f6b7"] ;
6448 -> 6492 ;
6493 [label="(...)", fillcolor="#C0C0C0"] ;
6492 -> 6493 ;
6494 [label="(...)", fillcolor="#C0C0C0"] ;
6492 -> 6494 ;
6505 [label=<Four of a kind &le; 2.5<br/>entropy = 1.899<br/>samples = 70<br/>value = [0, 32, 17, 4, 15, 0, 1, 0, 1, 0]>, fillcolor="#f7f8c7"] ;
6373 -> 6505 ;
6506 [label=<Royal flush &le; 2.5<br/>entropy = 1.548<br/>samples = 50<br/>value = [0, 26, 8, 0, 15, 0, 0, 0, 1, 0]>, fillcolor="#f6f7c1"] ;
6505 -> 6506 ;
6507 [label=<Full house &le; 3.5<br/>entropy = 1.561<br/>samples = 34<br/>value = [0, 14, 4, 0, 15, 0, 0, 0, 1, 0]>, fillcolor="#f5fefc"] ;
6506 -> 6507 ;
6508 [label="(...)", fillcolor="#C0C0C0"] ;
6507 -> 6508 ;
6535 [label="(...)", fillcolor="#C0C0C0"] ;
6507 -> 6535 ;
6540 [label=<Two pairs &le; 1.5<br/>entropy = 0.811<br/>samples = 16<br/>value = [0, 12, 4, 0, 0, 0, 0, 0, 0, 0]>, fillcolor="#ecee7b"] ;
6506 -> 6540 ;
6541 [label="(...)", fillcolor="#C0C0C0"] ;
6540 -> 6541 ;
6546 [label="(...)", fillcolor="#C0C0C0"] ;
6540 -> 6546 ;
6547 [label=<Royal flush &le; 2.5<br/>entropy = 1.72<br/>samples = 20<br/>value = [0, 6, 9, 4, 0, 0, 1, 0, 0, 0]>, fillcolor="#e3f9d5"] ;
6505 -> 6547 ;
6548 [label=<Straight flush &le; 3.5<br/>entropy = 0.971<br/>samples = 15<br/>value = [0, 6, 9, 0, 0, 0, 0, 0, 0, 0]>, fillcolor="#d3f6bd"] ;
6547 -> 6548 ;
6549 [label="(...)", fillcolor="#C0C0C0"] ;
6548 -> 6549 ;
6556 [label="(...)", fillcolor="#C0C0C0"] ;
6548 -> 6556 ;
6557 [label=<Two pairs &le; 1.5<br/>entropy = 0.722<br/>samples = 5<br/>value = [0, 0, 0, 4, 0, 0, 1, 0, 0, 0]>, fillcolor="#6aec86"] ;
6547 -> 6557 ;
6558 [label="(...)", fillcolor="#C0C0C0"] ;
6557 -> 6558 ;
6559 [label="(...)", fillcolor="#C0C0C0"] ;
6557 -> 6559 ;
6560 [label=<Three of a kind &le; 11.5<br/>entropy = 1.233<br/>samples = 988<br/>value = [286, 626, 0, 74, 0, 2, 0, 0, 0, 0]>, fillcolor="#f1f29f"] ;
6372 -> 6560 ;
6561 [label=<Nothing in hand &le; 1.5<br/>entropy = 1.264<br/>samples = 736<br/>value = [214, 457, 0, 64, 0, 1, 0, 0, 0, 0]>, fillcolor="#f2f3a3"] ;
6560 -> 6561 ;
6562 [label=<Two pairs &le; 3.5<br/>entropy = 1.288<br/>samples = 185<br/>value = [66, 106, 0, 12, 0, 1, 0, 0, 0, 0]>, fillcolor="#f5f6bc"] ;
6561 -> 6562 ;
6563 [label=<Three of a kind &le; 7.5<br/>entropy = 1.22<br/>samples = 140<br/>value = [45, 87, 0, 7, 0, 1, 0, 0, 0, 0]>, fillcolor="#f2f4a7"] ;
6562 -> 6563 ;
6564 [label="(...)", fillcolor="#C0C0C0"] ;
6563 -> 6564 ;
6595 [label="(...)", fillcolor="#C0C0C0"] ;
6563 -> 6595 ;
6666 [label=<Three of a kind &le; 6.5<br/>entropy = 1.391<br/>samples = 45<br/>value = [21, 19, 0, 5, 0, 0, 0, 0, 0, 0]>, fillcolor="#fdf5f0"] ;
6562 -> 6666 ;
6667 [label="(...)", fillcolor="#C0C0C0"] ;
6666 -> 6667 ;
6676 [label="(...)", fillcolor="#C0C0C0"] ;
6666 -> 6676 ;
6705 [label=<Nothing in hand &le; 2.5<br/>entropy = 1.245<br/>samples = 551<br/>value = [148, 351, 0, 52, 0, 0, 0, 0, 0, 0]>, fillcolor="#f0f29b"] ;
6561 -> 6705 ;
6706 [label=<Two pairs &le; 2.5<br/>entropy = 1.126<br/>samples = 179<br/>value = [30, 129, 0, 20, 0, 0, 0, 0, 0, 0]>, fillcolor="#ecee7b"] ;
6705 -> 6706 ;
6707 [label="(...)", fillcolor="#C0C0C0"] ;
6706 -> 6707 ;
6766 [label="(...)", fillcolor="#C0C0C0"] ;
6706 -> 6766 ;
6827 [label=<Straight flush &le; 2.5<br/>entropy = 1.274<br/>samples = 372<br/>value = [118, 222, 0, 32, 0, 0, 0, 0, 0, 0]>, fillcolor="#f3f4ae"] ;
6705 -> 6827 ;
6828 [label="(...)", fillcolor="#C0C0C0"] ;
6827 -> 6828 ;
6941 [label="(...)", fillcolor="#C0C0C0"] ;
6827 -> 6941 ;
7088 [label=<Two pairs &le; 3.5<br/>entropy = 1.119<br/>samples = 252<br/>value = [72, 169, 0, 10, 0, 1, 0, 0, 0, 0]>, fillcolor="#eff194"] ;
6560 -> 7088 ;
7089 [label=<Straight flush &le; 1.5<br/>entropy = 1.116<br/>samples = 191<br/>value = [52, 129, 0, 10, 0, 0, 0, 0, 0, 0]>, fillcolor="#eff191"] ;
7088 -> 7089 ;
7090 [label=<Straight &le; 3.5<br/>entropy = 1.253<br/>samples = 51<br/>value = [21, 27, 0, 3, 0, 0, 0, 0, 0, 0]>, fillcolor="#f9fad7"] ;
7089 -> 7090 ;
7091 [label="(...)", fillcolor="#C0C0C0"] ;
7090 -> 7091 ;
7110 [label="(...)", fillcolor="#C0C0C0"] ;
7090 -> 7110 ;
7125 [label=<Two pairs &le; 2.5<br/>entropy = 1.031<br/>samples = 140<br/>value = [31, 102, 0, 7, 0, 0, 0, 0, 0, 0]>, fillcolor="#ecee7e"] ;
7089 -> 7125 ;
7126 [label="(...)", fillcolor="#C0C0C0"] ;
7125 -> 7126 ;
7181 [label="(...)", fillcolor="#C0C0C0"] ;
7125 -> 7181 ;
7222 [label=<Royal flush &le; 1.5<br/>entropy = 1.024<br/>samples = 61<br/>value = [20, 40, 0, 0, 0, 1, 0, 0, 0, 0]>, fillcolor="#f1f29e"] ;
7088 -> 7222 ;
7223 [label=<Three of a kind &le; 12.5<br/>entropy = 0.937<br/>samples = 22<br/>value = [4, 17, 0, 0, 0, 1, 0, 0, 0, 0]>, fillcolor="#eaec70"] ;
7222 -> 7223 ;
7224 [label="(...)", fillcolor="#C0C0C0"] ;
7223 -> 7224 ;
7235 [label="(...)", fillcolor="#C0C0C0"] ;
7223 -> 7235 ;
7236 [label=<Flush &le; 1.5<br/>entropy = 0.977<br/>samples = 39<br/>value = [16, 23, 0, 0, 0, 0, 0, 0, 0, 0]>, fillcolor="#f6f7c3"] ;
7222 -> 7236 ;
7237 [label="(...)", fillcolor="#C0C0C0"] ;
7236 -> 7237 ;
7252 [label="(...)", fillcolor="#C0C0C0"] ;
7236 -> 7252 ;
7259 [label=<Three of a kind &le; 5.5<br/>entropy = 1.44<br/>samples = 4903<br/>value = [1341, 3010, 254, 273, 0, 6, 19, 0, 0, 0]>, fillcolor="#f1f3a2"] ;
6371 -> 7259 ;
7260 [label=<Straight flush &le; 1.5<br/>entropy = 1.184<br/>samples = 965<br/>value = [295, 614, 0, 55, 0, 1, 0, 0, 0, 0]>, fillcolor="#f1f3a1"] ;
7259 -> 7260 ;
7261 [label=<Full house &le; 1.5<br/>entropy = 1.16<br/>samples = 279<br/>value = [102, 166, 0, 11, 0, 0, 0, 0, 0, 0]>, fillcolor="#f5f6b7"] ;
7260 -> 7261 ;
7262 [label=<Straight &le; 1.5<br/>entropy = 0.994<br/>samples = 68<br/>value = [31, 37, 0, 0, 0, 0, 0, 0, 0, 0]>, fillcolor="#fafbdf"] ;
7261 -> 7262 ;
7263 [label=<entropy = 0.0<br/>samples = 9<br/>value = [9, 0, 0, 0, 0, 0, 0, 0, 0, 0]>, fillcolor="#e58139"] ;
7262 -> 7263 ;
7264 [label=<Flush &le; 1.5<br/>entropy = 0.953<br/>samples = 59<br/>value = [22, 37, 0, 0, 0, 0, 0, 0, 0, 0]>, fillcolor="#f3f4af"] ;
7262 -> 7264 ;
7265 [label="(...)", fillcolor="#C0C0C0"] ;
7264 -> 7265 ;
7270 [label="(...)", fillcolor="#C0C0C0"] ;
7264 -> 7270 ;
7285 [label=<Straight &le; 1.5<br/>entropy = 1.185<br/>samples = 211<br/>value = [71, 129, 0, 11, 0, 0, 0, 0, 0, 0]>, fillcolor="#f3f4ad"] ;
7261 -> 7285 ;
7286 [label=<Two pairs &le; 2.5<br/>entropy = 0.824<br/>samples = 31<br/>value = [8, 23, 0, 0, 0, 0, 0, 0, 0, 0]>, fillcolor="#ecee7e"] ;
7285 -> 7286 ;
7287 [label="(...)", fillcolor="#C0C0C0"] ;
7286 -> 7287 ;
7302 [label="(...)", fillcolor="#C0C0C0"] ;
7286 -> 7302 ;
7309 [label=<One pair &le; 12.5<br/>entropy = 1.226<br/>samples = 180<br/>value = [63, 106, 0, 11, 0, 0, 0, 0, 0, 0]>, fillcolor="#f4f5b6"] ;
7285 -> 7309 ;
7310 [label="(...)", fillcolor="#C0C0C0"] ;
7309 -> 7310 ;
7433 [label="(...)", fillcolor="#C0C0C0"] ;
7309 -> 7433 ;
7444 [label=<Straight &le; 2.5<br/>entropy = 1.184<br/>samples = 686<br/>value = [193, 448, 0, 44, 0, 1, 0, 0, 0, 0]>, fillcolor="#f0f299"] ;
7260 -> 7444 ;
7445 [label=<Straight &le; 1.5<br/>entropy = 1.16<br/>samples = 336<br/>value = [106, 213, 0, 17, 0, 0, 0, 0, 0, 0]>, fillcolor="#f2f3a3"] ;
7444 -> 7445 ;
7446 [label=<Full house &le; 1.5<br/>entropy = 1.132<br/>samples = 196<br/>value = [51, 133, 0, 12, 0, 0, 0, 0, 0, 0]>, fillcolor="#eff08f"] ;
7445 -> 7446 ;
7447 [label="(...)", fillcolor="#C0C0C0"] ;
7446 -> 7447 ;
7488 [label="(...)", fillcolor="#C0C0C0"] ;
7446 -> 7488 ;
7597 [label=<Nothing in hand &le; 3.5<br/>entropy = 1.163<br/>samples = 140<br/>value = [55, 80, 0, 5, 0, 0, 0, 0, 0, 0]>, fillcolor="#f6f7c5"] ;
7445 -> 7597 ;
7598 [label="(...)", fillcolor="#C0C0C0"] ;
7597 -> 7598 ;
7667 [label="(...)", fillcolor="#C0C0C0"] ;
7597 -> 7667 ;
7684 [label=<Full house &le; 2.5<br/>entropy = 1.194<br/>samples = 350<br/>value = [87, 235, 0, 27, 0, 1, 0, 0, 0, 0]>, fillcolor="#eff090"] ;
7444 -> 7684 ;
7685 [label=<Flush &le; 1.5<br/>entropy = 1.135<br/>samples = 207<br/>value = [40, 147, 0, 20, 0, 0, 0, 0, 0, 0]>, fillcolor="#ecee80"] ;
7684 -> 7685 ;
7686 [label="(...)", fillcolor="#C0C0C0"] ;
7685 -> 7686 ;
7703 [label="(...)", fillcolor="#C0C0C0"] ;
7685 -> 7703 ;
7792 [label=<Straight flush &le; 2.5<br/>entropy = 1.222<br/>samples = 143<br/>value = [47, 88, 0, 7, 0, 1, 0, 0, 0, 0]>, fillcolor="#f3f4aa"] ;
7684 -> 7792 ;
7793 [label="(...)", fillcolor="#C0C0C0"] ;
7792 -> 7793 ;
7836 [label="(...)", fillcolor="#C0C0C0"] ;
7792 -> 7836 ;
7905 [label=<Four of a kind &le; 1.5<br/>entropy = 1.48<br/>samples = 3938<br/>value = [1046, 2396, 254, 218, 0, 5, 19, 0, 0, 0]>, fillcolor="#f1f3a3"] ;
7259 -> 7905 ;
7906 [label=<Royal flush &le; 1.5<br/>entropy = 1.413<br/>samples = 1303<br/>value = [343, 818, 71, 65, 0, 4, 2, 0, 0, 0]>, fillcolor="#f1f29d"] ;
7905 -> 7906 ;
7907 [label=<Flush &le; 1.5<br/>entropy = 1.042<br/>samples = 377<br/>value = [0, 285, 25, 65, 0, 0, 2, 0, 0, 0]>, fillcolor="#ebed73"] ;
7906 -> 7907 ;
7908 [label=<Straight flush &le; 3.5<br/>entropy = 0.194<br/>samples = 67<br/>value = [0, 0, 0, 65, 0, 0, 2, 0, 0, 0]>, fillcolor="#3fe663"] ;
7907 -> 7908 ;
7909 [label="(...)", fillcolor="#C0C0C0"] ;
7908 -> 7909 ;
7910 [label="(...)", fillcolor="#C0C0C0"] ;
7908 -> 7910 ;
7917 [label=<Straight flush &le; 2.5<br/>entropy = 0.404<br/>samples = 310<br/>value = [0, 285, 25, 0, 0, 0, 0, 0, 0, 0]>, fillcolor="#e5e74a"] ;
7907 -> 7917 ;
7918 [label="(...)", fillcolor="#C0C0C0"] ;
7917 -> 7918 ;
7969 [label="(...)", fillcolor="#C0C0C0"] ;
7917 -> 7969 ;
7994 [label=<Flush &le; 1.5<br/>entropy = 1.238<br/>samples = 926<br/>value = [343, 533, 46, 0, 0, 4, 0, 0, 0, 0]>, fillcolor="#f6f7be"] ;
7906 -> 7994 ;
7995 [label=<Two pairs &le; 2.5<br/>entropy = 0.442<br/>samples = 273<br/>value = [0, 248, 25, 0, 0, 0, 0, 0, 0, 0]>, fillcolor="#e5e84d"] ;
7994 -> 7995 ;
7996 [label="(...)", fillcolor="#C0C0C0"] ;
7995 -> 7996 ;
8045 [label="(...)", fillcolor="#C0C0C0"] ;
7995 -> 8045 ;
8078 [label=<Straight flush &le; 2.5<br/>entropy = 1.214<br/>samples = 653<br/>value = [343, 285, 21, 0, 0, 4, 0, 0, 0, 0]>, fillcolor="#fbebe0"] ;
7994 -> 8078 ;
8079 [label="(...)", fillcolor="#C0C0C0"] ;
8078 -> 8079 ;
8306 [label="(...)", fillcolor="#C0C0C0"] ;
8078 -> 8306 ;
8527 [label=<Royal flush &le; 1.5<br/>entropy = 1.508<br/>samples = 2635<br/>value = [703, 1578, 183, 153, 0, 1, 17, 0, 0, 0]>, fillcolor="#f2f3a5"] ;
7905 -> 8527 ;
8528 [label=<Flush &le; 1.5<br/>entropy = 1.27<br/>samples = 963<br/>value = [365, 534, 63, 0, 0, 1, 0, 0, 0, 0]>, fillcolor="#f7f8c7"] ;
8527 -> 8528 ;
8529 [label=<Full house &le; 3.5<br/>entropy = 0.537<br/>samples = 285<br/>value = [0, 250, 35, 0, 0, 0, 0, 0, 0, 0]>, fillcolor="#e6e955"] ;
8528 -> 8529 ;
8530 [label="(...)", fillcolor="#C0C0C0"] ;
8529 -> 8530 ;
8611 [label="(...)", fillcolor="#C0C0C0"] ;
8529 -> 8611 ;
8628 [label=<One pair &le; 6.5<br/>entropy = 1.211<br/>samples = 678<br/>value = [365, 284, 28, 0, 0, 1, 0, 0, 0, 0]>, fillcolor="#fae5d6"] ;
8528 -> 8628 ;
8629 [label="(...)", fillcolor="#C0C0C0"] ;
8628 -> 8629 ;
8648 [label="(...)", fillcolor="#C0C0C0"] ;
8628 -> 8648 ;
9039 [label=<Flush &le; 1.5<br/>entropy = 1.546<br/>samples = 1672<br/>value = [338, 1044, 120, 153, 0, 0, 17, 0, 0, 0]>, fillcolor="#f0f196"] ;
8527 -> 9039 ;
9040 [label=<Two pairs &le; 3.5<br/>entropy = 1.208<br/>samples = 649<br/>value = [338, 283, 28, 0, 0, 0, 0, 0, 0, 0]>, fillcolor="#fbece1"] ;
9039 -> 9040 ;
9041 [label="(...)", fillcolor="#C0C0C0"] ;
9040 -> 9041 ;
9278 [label="(...)", fillcolor="#C0C0C0"] ;
9040 -> 9278 ;
9411 [label=<Straight &le; 3.5<br/>entropy = 1.138<br/>samples = 1023<br/>value = [0, 761, 92, 153, 0, 0, 17, 0, 0, 0]>, fillcolor="#ebed75"] ;
9039 -> 9411 ;
9412 [label="(...)", fillcolor="#C0C0C0"] ;
9411 -> 9412 ;
9901 [label="(...)", fillcolor="#C0C0C0"] ;
9411 -> 9901 ;
10048 [label=<One pair &le; 3.5<br/>entropy = 1.39<br/>samples = 29499<br/>value = [14732, 12520, 1733, 370, 49, 56, 39, 0, 0, 0]>, fillcolor="#fcefe5"] ;
5530 -> 10048 ;
10049 [label=<Three of a kind &le; 5.5<br/>entropy = 1.432<br/>samples = 6192<br/>value = [1677, 3856, 311, 294, 32, 5, 17, 0, 0, 0]>, fillcolor="#f1f29f"] ;
10048 -> 10049 ;
10050 [label=<Four of a kind &le; 5.5<br/>entropy = 1.519<br/>samples = 1220<br/>value = [318, 751, 52, 63, 32, 1, 3, 0, 0, 0]>, fillcolor="#f1f3a0"] ;
10049 -> 10050 ;
10051 [label=<Straight flush &le; 2.5<br/>entropy = 1.647<br/>samples = 196<br/>value = [0, 104, 52, 5, 32, 0, 3, 0, 0, 0]>, fillcolor="#f5f6b8"] ;
10050 -> 10051 ;
10052 [label=<Flush &le; 1.5<br/>entropy = 1.707<br/>samples = 97<br/>value = [0, 50, 26, 5, 15, 0, 1, 0, 0, 0]>, fillcolor="#f5f6bc"] ;
10051 -> 10052 ;
10053 [label=<Royal flush &le; 1.5<br/>entropy = 1.632<br/>samples = 37<br/>value = [0, 18, 14, 2, 2, 0, 1, 0, 0, 0]>, fillcolor="#fafadd"] ;
10052 -> 10053 ;
10054 [label=<Four of a kind &le; 4.5<br/>entropy = 1.846<br/>samples = 10<br/>value = [0, 3, 4, 2, 0, 0, 1, 0, 0, 0]>, fillcolor="#ecfbe3"] ;
10053 -> 10054 ;
10055 [label="(...)", fillcolor="#C0C0C0"] ;
10054 -> 10055 ;
10056 [label="(...)", fillcolor="#C0C0C0"] ;
10054 -> 10056 ;
10061 [label=<Royal flush &le; 2.5<br/>entropy = 1.28<br/>samples = 27<br/>value = [0, 15, 10, 0, 2, 0, 0, 0, 0, 0]>, fillcolor="#f6f7c5"] ;
10053 -> 10061 ;
10062 [label="(...)", fillcolor="#C0C0C0"] ;
10061 -> 10062 ;
10075 [label="(...)", fillcolor="#C0C0C0"] ;
10061 -> 10075 ;
10092 [label=<Nothing in hand &le; 3.5<br/>entropy = 1.642<br/>samples = 60<br/>value = [0, 32, 12, 3, 13, 0, 0, 0, 0, 0]>, fillcolor="#f3f4af"] ;
10052 -> 10092 ;
10093 [label=<Full house &le; 2.5<br/>entropy = 1.594<br/>samples = 40<br/>value = [0, 20, 7, 1, 12, 0, 0, 0, 0, 0]>, fillcolor="#f7f8c6"] ;
10092 -> 10093 ;
10094 [label="(...)", fillcolor="#C0C0C0"] ;
10093 -> 10094 ;
10119 [label="(...)", fillcolor="#C0C0C0"] ;
10093 -> 10119 ;
10136 [label=<Full house &le; 3.5<br/>entropy = 1.49<br/>samples = 20<br/>value = [0, 12, 5, 2, 1, 0, 0, 0, 0, 0]>, fillcolor="#f1f3a3"] ;
10092 -> 10136 ;
10137 [label="(...)", fillcolor="#C0C0C0"] ;
10136 -> 10137 ;
10152 [label="(...)", fillcolor="#C0C0C0"] ;
10136 -> 10152 ;
10161 [label=<One pair &le; 2.5<br/>entropy = 1.534<br/>samples = 99<br/>value = [0, 54, 26, 0, 17, 0, 2, 0, 0, 0]>, fillcolor="#f4f5b3"] ;
10051 -> 10161 ;
10162 [label=<Four of a kind &le; 4.5<br/>entropy = 1.319<br/>samples = 60<br/>value = [0, 36, 17, 0, 7, 0, 0, 0, 0, 0]>, fillcolor="#f2f4a8"] ;
10161 -> 10162 ;
10163 [label=<Three of a kind &le; 4.5<br/>entropy = 1.075<br/>samples = 30<br/>value = [0, 20, 9, 0, 1, 0, 0, 0, 0, 0]>, fillcolor="#f0f197"] ;
10162 -> 10163 ;
10164 [label="(...)", fillcolor="#C0C0C0"] ;
10163 -> 10164 ;
10179 [label="(...)", fillcolor="#C0C0C0"] ;
10163 -> 10179 ;
10184 [label=<Three of a kind &le; 4.5<br/>entropy = 1.457<br/>samples = 30<br/>value = [0, 16, 8, 0, 6, 0, 0, 0, 0, 0]>, fillcolor="#f4f6b7"] ;
10162 -> 10184 ;
10185 [label="(...)", fillcolor="#C0C0C0"] ;
10184 -> 10185 ;
10200 [label="(...)", fillcolor="#C0C0C0"] ;
10184 -> 10200 ;
10207 [label=<Flush &le; 2.5<br/>entropy = 1.726<br/>samples = 39<br/>value = [0, 18, 9, 0, 10, 0, 2, 0, 0, 0]>, fillcolor="#f7f8c8"] ;
10161 -> 10207 ;
10208 [label=<Royal flush &le; 2.5<br/>entropy = 1.46<br/>samples = 26<br/>value = [0, 12, 4, 0, 10, 0, 0, 0, 0, 0]>, fillcolor="#fbfce6"] ;
10207 -> 10208 ;
10209 [label="(...)", fillcolor="#C0C0C0"] ;
10208 -> 10209 ;
10224 [label="(...)", fillcolor="#C0C0C0"] ;
10208 -> 10224 ;
10229 [label=<Three of a kind &le; 4.5<br/>entropy = 1.46<br/>samples = 13<br/>value = [0, 6, 5, 0, 0, 0, 2, 0, 0, 0]>, fillcolor="#fbfce6"] ;
10207 -> 10229 ;
10230 [label="(...)", fillcolor="#C0C0C0"] ;
10229 -> 10230 ;
10235 [label="(...)", fillcolor="#C0C0C0"] ;
10229 -> 10235 ;
10236 [label=<Full house &le; 3.5<br/>entropy = 1.187<br/>samples = 1024<br/>value = [318, 647, 0, 58, 0, 1, 0, 0, 0, 0]>, fillcolor="#f1f3a3"] ;
10050 -> 10236 ;
10237 [label=<Straight flush &le; 1.5<br/>entropy = 1.148<br/>samples = 776<br/>value = [238, 501, 0, 36, 0, 1, 0, 0, 0, 0]>, fillcolor="#f1f29e"] ;
10236 -> 10237 ;
10238 [label=<Nothing in hand &le; 2.5<br/>entropy = 1.186<br/>samples = 196<br/>value = [54, 128, 0, 14, 0, 0, 0, 0, 0, 0]>, fillcolor="#f0f198"] ;
10237 -> 10238 ;
10239 [label=<Royal flush &le; 1.5<br/>entropy = 1.132<br/>samples = 91<br/>value = [33, 55, 0, 3, 0, 0, 0, 0, 0, 0]>, fillcolor="#f4f5b4"] ;
10238 -> 10239 ;
10240 [label="(...)", fillcolor="#C0C0C0"] ;
10239 -> 10240 ;
10263 [label="(...)", fillcolor="#C0C0C0"] ;
10239 -> 10263 ;
10290 [label=<Nothing in hand &le; 3.5<br/>entropy = 1.17<br/>samples = 105<br/>value = [21, 73, 0, 11, 0, 0, 0, 0, 0, 0]>, fillcolor="#edef84"] ;
10238 -> 10290 ;
10291 [label="(...)", fillcolor="#C0C0C0"] ;
10290 -> 10291 ;
10320 [label="(...)", fillcolor="#C0C0C0"] ;
10290 -> 10320 ;
10361 [label=<Straight flush &le; 3.5<br/>entropy = 1.13<br/>samples = 580<br/>value = [184, 373, 0, 22, 0, 1, 0, 0, 0, 0]>, fillcolor="#f1f3a0"] ;
10237 -> 10361 ;
10362 [label=<Four of a kind &le; 6.5<br/>entropy = 1.08<br/>samples = 385<br/>value = [116, 257, 0, 11, 0, 1, 0, 0, 0, 0]>, fillcolor="#f0f197"] ;
10361 -> 10362 ;
10363 [label="(...)", fillcolor="#C0C0C0"] ;
10362 -> 10363 ;
10402 [label="(...)", fillcolor="#C0C0C0"] ;
10362 -> 10402 ;
10655 [label=<Nothing in hand &le; 3.5<br/>entropy = 1.21<br/>samples = 195<br/>value = [68, 116, 0, 11, 0, 0, 0, 0, 0, 0]>, fillcolor="#f4f5b4"] ;
10361 -> 10655 ;
10656 [label="(...)", fillcolor="#C0C0C0"] ;
10655 -> 10656 ;
10745 [label="(...)", fillcolor="#C0C0C0"] ;
10655 -> 10745 ;
10764 [label=<Straight &le; 1.5<br/>entropy = 1.287<br/>samples = 248<br/>value = [80, 146, 0, 22, 0, 0, 0, 0, 0, 0]>, fillcolor="#f4f5b1"] ;
10236 -> 10764 ;
10765 [label=<Straight flush &le; 2.5<br/>entropy = 1.5<br/>samples = 61<br/>value = [24, 26, 0, 11, 0, 0, 0, 0, 0, 0]>, fillcolor="#fdfef4"] ;
10764 -> 10765 ;
10766 [label=<Straight flush &le; 1.5<br/>entropy = 0.985<br/>samples = 21<br/>value = [9, 12, 0, 0, 0, 0, 0, 0, 0, 0]>, fillcolor="#f8f8ce"] ;
10765 -> 10766 ;
10767 [label="(...)", fillcolor="#C0C0C0"] ;
10766 -> 10767 ;
10772 [label="(...)", fillcolor="#C0C0C0"] ;
10766 -> 10772 ;
10783 [label=<Two pairs &le; 3.5<br/>entropy = 1.573<br/>samples = 40<br/>value = [15, 14, 0, 11, 0, 0, 0, 0, 0, 0]>, fillcolor="#fefaf7"] ;
10765 -> 10783 ;
10784 [label="(...)", fillcolor="#C0C0C0"] ;
10783 -> 10784 ;
10811 [label="(...)", fillcolor="#C0C0C0"] ;
10783 -> 10811 ;
10818 [label=<Nothing in hand &le; 1.5<br/>entropy = 1.172<br/>samples = 187<br/>value = [56, 120, 0, 11, 0, 0, 0, 0, 0, 0]>, fillcolor="#f1f29e"] ;
10764 -> 10818 ;
10819 [label=<Royal flush &le; 2.5<br/>entropy = 0.984<br/>samples = 54<br/>value = [10, 41, 0, 3, 0, 0, 0, 0, 0, 0]>, fillcolor="#ebed74"] ;
10818 -> 10819 ;
10820 [label="(...)", fillcolor="#C0C0C0"] ;
10819 -> 10820 ;
10847 [label="(...)", fillcolor="#C0C0C0"] ;
10819 -> 10847 ;
10852 [label=<Straight &le; 2.5<br/>entropy = 1.22<br/>samples = 133<br/>value = [46, 79, 0, 8, 0, 0, 0, 0, 0, 0]>, fillcolor="#f4f5b4"] ;
10818 -> 10852 ;
10853 [label="(...)", fillcolor="#C0C0C0"] ;
10852 -> 10853 ;
10882 [label="(...)", fillcolor="#C0C0C0"] ;
10852 -> 10882 ;
10957 [label=<Four of a kind &le; 5.5<br/>entropy = 1.396<br/>samples = 4972<br/>value = [1359, 3105, 259, 231, 0, 4, 14, 0, 0, 0]>, fillcolor="#f1f29f"] ;
10049 -> 10957 ;
10958 [label=<Three of a kind &le; 11.5<br/>entropy = 1.163<br/>samples = 1063<br/>value = [327, 681, 0, 54, 0, 1, 0, 0, 0, 0]>, fillcolor="#f1f2a0"] ;
10957 -> 10958 ;
10959 [label=<Flush &le; 1.5<br/>entropy = 1.128<br/>samples = 796<br/>value = [251, 513, 0, 31, 0, 1, 0, 0, 0, 0]>, fillcolor="#f1f3a0"] ;
10958 -> 10959 ;
10960 [label=<One pair &le; 1.5<br/>entropy = 1.036<br/>samples = 271<br/>value = [70, 191, 0, 10, 0, 0, 0, 0, 0, 0]>, fillcolor="#eeef88"] ;
10959 -> 10960 ;
10961 [label=<Royal flush &le; 1.5<br/>entropy = 0.539<br/>samples = 81<br/>value = [0, 71, 0, 10, 0, 0, 0, 0, 0, 0]>, fillcolor="#e6e955"] ;
10960 -> 10961 ;
10962 [label="(...)", fillcolor="#C0C0C0"] ;
10961 -> 10962 ;
10963 [label="(...)", fillcolor="#C0C0C0"] ;
10961 -> 10963 ;
10964 [label=<Royal flush &le; 1.5<br/>entropy = 0.949<br/>samples = 190<br/>value = [70, 120, 0, 0, 0, 0, 0, 0, 0, 0]>, fillcolor="#f3f4ac"] ;
10960 -> 10964 ;
10965 [label="(...)", fillcolor="#C0C0C0"] ;
10964 -> 10965 ;
10966 [label="(...)", fillcolor="#C0C0C0"] ;
10964 -> 10966 ;
11021 [label=<One pair &le; 1.5<br/>entropy = 1.165<br/>samples = 525<br/>value = [181, 322, 0, 21, 0, 1, 0, 0, 0, 0]>, fillcolor="#f3f4ae"] ;
10959 -> 11021 ;
11022 [label=<Royal flush &le; 1.5<br/>entropy = 1.033<br/>samples = 212<br/>value = [96, 115, 0, 0, 0, 1, 0, 0, 0, 0]>, fillcolor="#fafbdf"] ;
11021 -> 11022 ;
11023 [label="(...)", fillcolor="#C0C0C0"] ;
11022 -> 11023 ;
11024 [label="(...)", fillcolor="#C0C0C0"] ;
11022 -> 11024 ;
11073 [label=<Royal flush &le; 1.5<br/>entropy = 1.167<br/>samples = 313<br/>value = [85, 207, 0, 21, 0, 0, 0, 0, 0, 0]>, fillcolor="#eff195"] ;
11021 -> 11073 ;
11074 [label="(...)", fillcolor="#C0C0C0"] ;
11073 -> 11074 ;
11145 [label="(...)", fillcolor="#C0C0C0"] ;
11073 -> 11145 ;
11198 [label=<Three of a kind &le; 12.5<br/>entropy = 1.241<br/>samples = 267<br/>value = [76, 168, 0, 23, 0, 0, 0, 0, 0, 0]>, fillcolor="#f1f2a0"] ;
10958 -> 11198 ;
11199 [label=<Nothing in hand &le; 3.5<br/>entropy = 1.316<br/>samples = 145<br/>value = [35, 90, 0, 20, 0, 0, 0, 0, 0, 0]>, fillcolor="#f0f29c"] ;
11198 -> 11199 ;
11200 [label=<Straight flush &le; 1.5<br/>entropy = 1.448<br/>samples = 91<br/>value = [27, 48, 0, 16, 0, 0, 0, 0, 0, 0]>, fillcolor="#f5f6be"] ;
11199 -> 11200 ;
11201 [label="(...)", fillcolor="#C0C0C0"] ;
11200 -> 11201 ;
11226 [label="(...)", fillcolor="#C0C0C0"] ;
11200 -> 11226 ;
11277 [label=<Straight &le; 1.5<br/>entropy = 0.968<br/>samples = 54<br/>value = [8, 42, 0, 4, 0, 0, 0, 0, 0, 0]>, fillcolor="#eaec6d"] ;
11199 -> 11277 ;
11278 [label="(...)", fillcolor="#C0C0C0"] ;
11277 -> 11278 ;
11301 [label="(...)", fillcolor="#C0C0C0"] ;
11277 -> 11301 ;
11318 [label=<Full house &le; 3.5<br/>entropy = 1.073<br/>samples = 122<br/>value = [41, 78, 0, 3, 0, 0, 0, 0, 0, 0]>, fillcolor="#f2f3a5"] ;
11198 -> 11318 ;
11319 [label=<Two pairs &le; 3.5<br/>entropy = 1.042<br/>samples = 91<br/>value = [25, 63, 0, 3, 0, 0, 0, 0, 0, 0]>, fillcolor="#eef08d"] ;
11318 -> 11319 ;
11320 [label="(...)", fillcolor="#C0C0C0"] ;
11319 -> 11320 ;
11363 [label="(...)", fillcolor="#C0C0C0"] ;
11319 -> 11363 ;
11386 [label=<Nothing in hand &le; 2.5<br/>entropy = 0.999<br/>samples = 31<br/>value = [16, 15, 0, 0, 0, 0, 0, 0, 0, 0]>, fillcolor="#fdf7f3"] ;
11318 -> 11386 ;
11387 [label="(...)", fillcolor="#C0C0C0"] ;
11386 -> 11387 ;
11406 [label="(...)", fillcolor="#C0C0C0"] ;
11386 -> 11406 ;
11415 [label=<Three of a kind &le; 7.5<br/>entropy = 1.433<br/>samples = 3909<br/>value = [1032, 2424, 259, 177, 0, 3, 14, 0, 0, 0]>, fillcolor="#f1f29f"] ;
10957 -> 11415 ;
11416 [label=<Four of a kind &le; 7.5<br/>entropy = 1.388<br/>samples = 1039<br/>value = [253, 673, 69, 37, 0, 2, 5, 0, 0, 0]>, fillcolor="#f0f195"] ;
11415 -> 11416 ;
11417 [label=<Straight &le; 2.5<br/>entropy = 1.767<br/>samples = 239<br/>value = [38, 116, 69, 11, 0, 0, 5, 0, 0, 0]>, fillcolor="#f7f8c8"] ;
11416 -> 11417 ;
11418 [label=<One pair &le; 1.5<br/>entropy = 1.736<br/>samples = 129<br/>value = [13, 61, 45, 6, 0, 0, 4, 0, 0, 0]>, fillcolor="#f9fad9"] ;
11417 -> 11418 ;
11419 [label="(...)", fillcolor="#C0C0C0"] ;
11418 -> 11419 ;
11454 [label="(...)", fillcolor="#C0C0C0"] ;
11418 -> 11454 ;
11531 [label=<Two pairs &le; 3.5<br/>entropy = 1.729<br/>samples = 110<br/>value = [25, 55, 24, 5, 0, 0, 1, 0, 0, 0]>, fillcolor="#f5f6b9"] ;
11417 -> 11531 ;
11532 [label="(...)", fillcolor="#C0C0C0"] ;
11531 -> 11532 ;
11615 [label="(...)", fillcolor="#C0C0C0"] ;
11531 -> 11615 ;
11642 [label=<One pair &le; 2.5<br/>entropy = 1.055<br/>samples = 800<br/>value = [215, 557, 0, 26, 0, 2, 0, 0, 0, 0]>, fillcolor="#eef08b"] ;
11416 -> 11642 ;
11643 [label=<Flush &le; 2.5<br/>entropy = 1.007<br/>samples = 540<br/>value = [135, 389, 0, 14, 0, 2, 0, 0, 0, 0]>, fillcolor="#edef83"] ;
11642 -> 11643 ;
11644 [label="(...)", fillcolor="#C0C0C0"] ;
11643 -> 11644 ;
11705 [label="(...)", fillcolor="#C0C0C0"] ;
11643 -> 11705 ;
11796 [label=<Royal flush &le; 2.5<br/>entropy = 1.135<br/>samples = 260<br/>value = [80, 168, 0, 12, 0, 0, 0, 0, 0, 0]>, fillcolor="#f1f29e"] ;
11642 -> 11796 ;
11797 [label="(...)", fillcolor="#C0C0C0"] ;
11796 -> 11797 ;
11896 [label="(...)", fillcolor="#C0C0C0"] ;
11796 -> 11896 ;
11899 [label=<Four of a kind &le; 7.5<br/>entropy = 1.448<br/>samples = 2870<br/>value = [779, 1751, 190, 140, 0, 1, 9, 0, 0, 0]>, fillcolor="#f2f3a3"] ;
11415 -> 11899 ;
11900 [label=<One pair &le; 2.5<br/>entropy = 1.135<br/>samples = 750<br/>value = [226, 488, 0, 36, 0, 0, 0, 0, 0, 0]>, fillcolor="#f0f29c"] ;
11899 -> 11900 ;
11901 [label=<Royal flush &le; 2.5<br/>entropy = 1.097<br/>samples = 511<br/>value = [160, 333, 0, 18, 0, 0, 0, 0, 0, 0]>, fillcolor="#f1f29d"] ;
11900 -> 11901 ;
11902 [label="(...)", fillcolor="#C0C0C0"] ;
11901 -> 11902 ;
12071 [label="(...)", fillcolor="#C0C0C0"] ;
11901 -> 12071 ;
12098 [label=<Flush &le; 2.5<br/>entropy = 1.199<br/>samples = 239<br/>value = [66, 155, 0, 18, 0, 0, 0, 0, 0, 0]>, fillcolor="#f0f299"] ;
11900 -> 12098 ;
12099 [label="(...)", fillcolor="#C0C0C0"] ;
12098 -> 12099 ;
12160 [label="(...)", fillcolor="#C0C0C0"] ;
12098 -> 12160 ;
12163 [label=<Three of a kind &le; 8.5<br/>entropy = 1.515<br/>samples = 2120<br/>value = [553, 1263, 190, 104, 0, 1, 9, 0, 0, 0]>, fillcolor="#f2f3a5"] ;
11899 -> 12163 ;
12164 [label=<Four of a kind &le; 8.5<br/>entropy = 1.691<br/>samples = 352<br/>value = [94, 187, 38, 31, 0, 0, 2, 0, 0, 0]>, fillcolor="#f5f6b8"] ;
12163 -> 12164 ;
12165 [label="(...)", fillcolor="#C0C0C0"] ;
12164 -> 12165 ;
12204 [label="(...)", fillcolor="#C0C0C0"] ;
12164 -> 12204 ;
12373 [label=<Four of a kind &le; 8.5<br/>entropy = 1.473<br/>samples = 1768<br/>value = [459, 1076, 152, 73, 0, 1, 7, 0, 0, 0]>, fillcolor="#f1f3a2"] ;
12163 -> 12373 ;
12374 [label="(...)", fillcolor="#C0C0C0"] ;
12373 -> 12374 ;
12567 [label="(...)", fillcolor="#C0C0C0"] ;
12373 -> 12567 ;
13672 [label=<Four of a kind &le; 6.5<br/>entropy = 1.309<br/>samples = 23307<br/>value = [13055, 8664, 1422, 76, 17, 51, 22, 0, 0, 0]>, fillcolor="#f7d9c4"] ;
10048 -> 13672 ;
13673 [label=<One pair &le; 6.5<br/>entropy = 1.339<br/>samples = 6814<br/>value = [3796, 2514, 438, 23, 17, 19, 7, 0, 0, 0]>, fillcolor="#f7d9c4"] ;
13672 -> 13673 ;
13674 [label=<Three of a kind &le; 6.5<br/>entropy = 1.61<br/>samples = 1911<br/>value = [792, 835, 231, 23, 17, 6, 7, 0, 0, 0]>, fillcolor="#fefef7"] ;
13673 -> 13674 ;
13675 [label=<Flush &le; 1.5<br/>entropy = 1.803<br/>samples = 501<br/>value = [63, 272, 119, 23, 17, 0, 7, 0, 0, 0]>, fillcolor="#f3f5b0"] ;
13674 -> 13675 ;
13676 [label=<Royal flush &le; 1.5<br/>entropy = 1.829<br/>samples = 169<br/>value = [31, 81, 43, 10, 0, 0, 4, 0, 0, 0]>, fillcolor="#f6f7c3"] ;
13675 -> 13676 ;
13677 [label=<One pair &le; 4.5<br/>entropy = 0.882<br/>samples = 53<br/>value = [0, 6, 43, 0, 0, 0, 4, 0, 0, 0]>, fillcolor="#97eb63"] ;
13676 -> 13677 ;
13678 [label="(...)", fillcolor="#C0C0C0"] ;
13677 -> 13678 ;
13691 [label="(...)", fillcolor="#C0C0C0"] ;
13677 -> 13691 ;
13710 [label=<Straight &le; 3.5<br/>entropy = 1.22<br/>samples = 116<br/>value = [31, 75, 0, 10, 0, 0, 0, 0, 0, 0]>, fillcolor="#f0f299"] ;
13676 -> 13710 ;
13711 [label="(...)", fillcolor="#C0C0C0"] ;
13710 -> 13711 ;
13778 [label="(...)", fillcolor="#C0C0C0"] ;
13710 -> 13778 ;
13801 [label=<Royal flush &le; 1.5<br/>entropy = 1.735<br/>samples = 332<br/>value = [32, 191, 76, 13, 17, 0, 3, 0, 0, 0]>, fillcolor="#f2f3a6"] ;
13675 -> 13801 ;
13802 [label=<Full house &le; 1.5<br/>entropy = 1.131<br/>samples = 126<br/>value = [32, 86, 0, 8, 0, 0, 0, 0, 0, 0]>, fillcolor="#eef08d"] ;
13801 -> 13802 ;
13803 [label="(...)", fillcolor="#C0C0C0"] ;
13802 -> 13803 ;
13828 [label="(...)", fillcolor="#C0C0C0"] ;
13802 -> 13828 ;
13899 [label=<Four of a kind &le; 4.5<br/>entropy = 1.542<br/>samples = 206<br/>value = [0, 105, 76, 5, 17, 0, 3, 0, 0, 0]>, fillcolor="#f9f9d3"] ;
13801 -> 13899 ;
13900 [label="(...)", fillcolor="#C0C0C0"] ;
13899 -> 13900 ;
13945 [label="(...)", fillcolor="#C0C0C0"] ;
13899 -> 13945 ;
14030 [label=<Three of a kind &le; 10.5<br/>entropy = 1.345<br/>samples = 1410<br/>value = [729, 563, 112, 0, 0, 6, 0, 0, 0, 0]>, fillcolor="#fae6d8"] ;
13674 -> 14030 ;
14031 [label=<Straight flush &le; 2.5<br/>entropy = 1.389<br/>samples = 773<br/>value = [397, 295, 78, 0, 0, 3, 0, 0, 0, 0]>, fillcolor="#f9e4d5"] ;
14030 -> 14031 ;
14032 [label=<Straight &le; 2.5<br/>entropy = 1.394<br/>samples = 402<br/>value = [193, 169, 38, 0, 0, 2, 0, 0, 0, 0]>, fillcolor="#fcf2eb"] ;
14031 -> 14032 ;
14033 [label="(...)", fillcolor="#C0C0C0"] ;
14032 -> 14033 ;
14166 [label="(...)", fillcolor="#C0C0C0"] ;
14032 -> 14166 ;
14361 [label=<Straight &le; 3.5<br/>entropy = 1.373<br/>samples = 371<br/>value = [204, 126, 40, 0, 0, 1, 0, 0, 0, 0]>, fillcolor="#f7d7c0"] ;
14031 -> 14361 ;
14362 [label="(...)", fillcolor="#C0C0C0"] ;
14361 -> 14362 ;
14619 [label="(...)", fillcolor="#C0C0C0"] ;
14361 -> 14619 ;
14678 [label=<One pair &le; 4.5<br/>entropy = 1.278<br/>samples = 637<br/>value = [332, 268, 34, 0, 0, 3, 0, 0, 0, 0]>, fillcolor="#fae9dd"] ;
14030 -> 14678 ;
14679 [label=<Four of a kind &le; 4.5<br/>entropy = 1.283<br/>samples = 230<br/>value = [108, 107, 15, 0, 0, 0, 0, 0, 0, 0]>, fillcolor="#fffefd"] ;
14678 -> 14679 ;
14680 [label="(...)", fillcolor="#C0C0C0"] ;
14679 -> 14680 ;
14709 [label="(...)", fillcolor="#C0C0C0"] ;
14679 -> 14709 ;
14826 [label=<Four of a kind &le; 4.5<br/>entropy = 1.262<br/>samples = 407<br/>value = [224, 161, 19, 0, 0, 3, 0, 0, 0, 0]>, fillcolor="#f8dfcc"] ;
14678 -> 14826 ;
14827 [label="(...)", fillcolor="#C0C0C0"] ;
14826 -> 14827 ;
14900 [label="(...)", fillcolor="#C0C0C0"] ;
14826 -> 14900 ;
15095 [label=<Three of a kind &le; 6.5<br/>entropy = 1.178<br/>samples = 4903<br/>value = [3004, 1679, 207, 0, 0, 13, 0, 0, 0, 0]>, fillcolor="#f4cbae"] ;
13673 -> 15095 ;
15096 [label=<One pair &le; 11.5<br/>entropy = 1.293<br/>samples = 1459<br/>value = [778, 580, 98, 0, 0, 3, 0, 0, 0, 0]>, fillcolor="#f9e3d2"] ;
15095 -> 15096 ;
15097 [label=<One pair &le; 9.5<br/>entropy = 1.275<br/>samples = 1046<br/>value = [566, 408, 72, 0, 0, 0, 0, 0, 0, 0]>, fillcolor="#f9e0ce"] ;
15096 -> 15097 ;
15098 [label=<Nothing in hand &le; 2.5<br/>entropy = 1.294<br/>samples = 646<br/>value = [327, 273, 46, 0, 0, 0, 0, 0, 0, 0]>, fillcolor="#fbede2"] ;
15097 -> 15098 ;
15099 [label="(...)", fillcolor="#C0C0C0"] ;
15098 -> 15099 ;
15386 [label="(...)", fillcolor="#C0C0C0"] ;
15098 -> 15386 ;
15641 [label=<Full house &le; 3.5<br/>entropy = 1.229<br/>samples = 400<br/>value = [239, 135, 26, 0, 0, 0, 0, 0, 0, 0]>, fillcolor="#f5ceb1"] ;
15097 -> 15641 ;
15642 [label="(...)", fillcolor="#C0C0C0"] ;
15641 -> 15642 ;
15761 [label="(...)", fillcolor="#C0C0C0"] ;
15641 -> 15761 ;
15840 [label=<Royal flush &le; 1.5<br/>entropy = 1.323<br/>samples = 413<br/>value = [212, 172, 26, 0, 0, 3, 0, 0, 0, 0]>, fillcolor="#fbeade"] ;
15096 -> 15840 ;
15841 [label=<Flush &le; 1.5<br/>entropy = 1.224<br/>samples = 133<br/>value = [70, 58, 3, 0, 0, 2, 0, 0, 0, 0]>, fillcolor="#fbebdf"] ;
15840 -> 15841 ;
15842 [label="(...)", fillcolor="#C0C0C0"] ;
15841 -> 15842 ;
15855 [label="(...)", fillcolor="#C0C0C0"] ;
15841 -> 15855 ;
15924 [label=<Flush &le; 1.5<br/>entropy = 1.35<br/>samples = 280<br/>value = [142, 114, 23, 0, 0, 1, 0, 0, 0, 0]>, fillcolor="#fbeade"] ;
15840 -> 15924 ;
15925 [label="(...)", fillcolor="#C0C0C0"] ;
15924 -> 15925 ;
15984 [label="(...)", fillcolor="#C0C0C0"] ;
15924 -> 15984 ;
16099 [label=<Nothing in hand &le; 2.5<br/>entropy = 1.115<br/>samples = 3444<br/>value = [2226, 1099, 109, 0, 0, 10, 0, 0, 0, 0]>, fillcolor="#f3c2a0"] ;
15095 -> 16099 ;
16100 [label=<Two pairs &le; 2.5<br/>entropy = 1.116<br/>samples = 1714<br/>value = [1134, 511, 64, 0, 0, 5, 0, 0, 0, 0]>, fillcolor="#f2be98"] ;
16099 -> 16100 ;
16101 [label=<Full house &le; 2.5<br/>entropy = 1.084<br/>samples = 855<br/>value = [586, 238, 26, 0, 0, 5, 0, 0, 0, 0]>, fillcolor="#f0b88f"] ;
16100 -> 16101 ;
16102 [label="(...)", fillcolor="#C0C0C0"] ;
16101 -> 16102 ;
16329 [label="(...)", fillcolor="#C0C0C0"] ;
16101 -> 16329 ;
16596 [label=<Three of a kind &le; 9.5<br/>entropy = 1.138<br/>samples = 859<br/>value = [548, 273, 38, 0, 0, 0, 0, 0, 0, 0]>, fillcolor="#f3c4a2"] ;
16100 -> 16596 ;
16597 [label="(...)", fillcolor="#C0C0C0"] ;
16596 -> 16597 ;
16846 [label="(...)", fillcolor="#C0C0C0"] ;
16596 -> 16846 ;
17189 [label=<Two pairs &le; 2.5<br/>entropy = 1.109<br/>samples = 1730<br/>value = [1092, 588, 45, 0, 0, 5, 0, 0, 0, 0]>, fillcolor="#f4c7a8"] ;
16099 -> 17189 ;
17190 [label=<Three of a kind &le; 12.5<br/>entropy = 1.154<br/>samples = 887<br/>value = [526, 328, 33, 0, 0, 0, 0, 0, 0, 0]>, fillcolor="#f6d2b9"] ;
17189 -> 17190 ;
17191 [label="(...)", fillcolor="#C0C0C0"] ;
17190 -> 17191 ;
17678 [label="(...)", fillcolor="#C0C0C0"] ;
17190 -> 17678 ;
17755 [label=<Straight &le; 3.5<br/>entropy = 1.04<br/>samples = 843<br/>value = [566, 260, 12, 0, 0, 5, 0, 0, 0, 0]>, fillcolor="#f1bd97"] ;
17189 -> 17755 ;
17756 [label="(...)", fillcolor="#C0C0C0"] ;
17755 -> 17756 ;
18113 [label="(...)", fillcolor="#C0C0C0"] ;
17755 -> 18113 ;
18202 [label=<Three of a kind &le; 6.5<br/>entropy = 1.294<br/>samples = 16493<br/>value = [9259, 6150, 984, 53, 0, 32, 15, 0, 0, 0]>, fillcolor="#f7d9c3"] ;
13672 -> 18202 ;
18203 [label=<One pair &le; 6.5<br/>entropy = 1.17<br/>samples = 5088<br/>value = [3084, 1789, 208, 0, 0, 7, 0, 0, 0, 0]>, fillcolor="#f5ceb1"] ;
18202 -> 18203 ;
18204 [label=<Two pairs &le; 2.5<br/>entropy = 1.288<br/>samples = 1506<br/>value = [812, 586, 107, 0, 0, 1, 0, 0, 0, 0]>, fillcolor="#f9e0ce"] ;
18203 -> 18204 ;
18205 [label=<Nothing in hand &le; 2.5<br/>entropy = 1.195<br/>samples = 749<br/>value = [421, 295, 33, 0, 0, 0, 0, 0, 0, 0]>, fillcolor="#f8dcc8"] ;
18204 -> 18205 ;
18206 [label=<Four of a kind &le; 10.5<br/>entropy = 1.105<br/>samples = 331<br/>value = [203, 119, 9, 0, 0, 0, 0, 0, 0, 0]>, fillcolor="#f5cdb1"] ;
18205 -> 18206 ;
18207 [label="(...)", fillcolor="#C0C0C0"] ;
18206 -> 18207 ;
18336 [label="(...)", fillcolor="#C0C0C0"] ;
18206 -> 18336 ;
18443 [label=<Full house &le; 1.5<br/>entropy = 1.252<br/>samples = 418<br/>value = [218, 176, 24, 0, 0, 0, 0, 0, 0, 0]>, fillcolor="#fae9dd"] ;
18205 -> 18443 ;
18444 [label="(...)", fillcolor="#C0C0C0"] ;
18443 -> 18444 ;
18527 [label="(...)", fillcolor="#C0C0C0"] ;
18443 -> 18527 ;
18722 [label=<Flush &le; 2.5<br/>entropy = 1.363<br/>samples = 757<br/>value = [391, 291, 74, 0, 0, 1, 0, 0, 0, 0]>, fillcolor="#f9e4d5"] ;
18204 -> 18722 ;
18723 [label=<Royal flush &le; 2.5<br/>entropy = 1.325<br/>samples = 488<br/>value = [272, 169, 47, 0, 0, 0, 0, 0, 0, 0]>, fillcolor="#f7d6bf"] ;
18722 -> 18723 ;
18724 [label="(...)", fillcolor="#C0C0C0"] ;
18723 -> 18724 ;
18977 [label="(...)", fillcolor="#C0C0C0"] ;
18723 -> 18977 ;
19060 [label=<Royal flush &le; 2.5<br/>entropy = 1.401<br/>samples = 269<br/>value = [119, 122, 27, 0, 0, 1, 0, 0, 0, 0]>, fillcolor="#fefefb"] ;
18722 -> 19060 ;
19061 [label="(...)", fillcolor="#C0C0C0"] ;
19060 -> 19061 ;
19192 [label="(...)", fillcolor="#C0C0C0"] ;
19060 -> 19192 ;
19237 [label=<Nothing in hand &le; 1.5<br/>entropy = 1.106<br/>samples = 3582<br/>value = [2272, 1203, 101, 0, 0, 6, 0, 0, 0, 0]>, fillcolor="#f3c6a6"] ;
18203 -> 19237 ;
19238 [label=<Full house &le; 1.5<br/>entropy = 1.098<br/>samples = 869<br/>value = [529, 321, 17, 0, 0, 2, 0, 0, 0, 0]>, fillcolor="#f5cfb4"] ;
19237 -> 19238 ;
19239 [label=<Two pairs &le; 1.5<br/>entropy = 0.992<br/>samples = 209<br/>value = [137, 70, 0, 0, 0, 2, 0, 0, 0, 0]>, fillcolor="#f2c2a0"] ;
19238 -> 19239 ;
19240 [label="(...)", fillcolor="#C0C0C0"] ;
19239 -> 19240 ;
19273 [label="(...)", fillcolor="#C0C0C0"] ;
19239 -> 19273 ;
19386 [label=<One pair &le; 12.5<br/>entropy = 1.113<br/>samples = 660<br/>value = [392, 251, 17, 0, 0, 0, 0, 0, 0, 0]>, fillcolor="#f6d4bb"] ;
19238 -> 19386 ;
19387 [label="(...)", fillcolor="#C0C0C0"] ;
19386 -> 19387 ;
19730 [label="(...)", fillcolor="#C0C0C0"] ;
19386 -> 19730 ;
19773 [label=<Straight &le; 2.5<br/>entropy = 1.106<br/>samples = 2713<br/>value = [1743, 882, 84, 0, 0, 4, 0, 0, 0, 0]>, fillcolor="#f3c4a2"] ;
19237 -> 19773 ;
19774 [label=<Straight flush &le; 2.5<br/>entropy = 1.122<br/>samples = 1355<br/>value = [863, 440, 52, 0, 0, 0, 0, 0, 0, 0]>, fillcolor="#f3c5a3"] ;
19773 -> 19774 ;
19775 [label="(...)", fillcolor="#C0C0C0"] ;
19774 -> 19775 ;
20082 [label="(...)", fillcolor="#C0C0C0"] ;
19774 -> 20082 ;
20657 [label=<Straight flush &le; 2.5<br/>entropy = 1.085<br/>samples = 1358<br/>value = [880, 442, 32, 0, 0, 4, 0, 0, 0, 0]>, fillcolor="#f3c3a0"] ;
19773 -> 20657 ;
20658 [label="(...)", fillcolor="#C0C0C0"] ;
20657 -> 20658 ;
21141 [label="(...)", fillcolor="#C0C0C0"] ;
20657 -> 21141 ;
21476 [label=<One pair &le; 6.5<br/>entropy = 1.341<br/>samples = 11405<br/>value = [6175, 4361, 776, 53, 0, 25, 15, 0, 0, 0]>, fillcolor="#f8dfcc"] ;
18202 -> 21476 ;
21477 [label=<Straight flush &le; 2.5<br/>entropy = 1.118<br/>samples = 3481<br/>value = [2242, 1117, 113, 0, 0, 9, 0, 0, 0, 0]>, fillcolor="#f3c3a1"] ;
21476 -> 21477 ;
21478 [label=<Straight &le; 2.5<br/>entropy = 1.141<br/>samples = 1781<br/>value = [1121, 589, 69, 0, 0, 2, 0, 0, 0, 0]>, fillcolor="#f3c7a7"] ;
21477 -> 21478 ;
